{
	"pre_film.0.0.weight": [
		-0.1843121200799942,
		-0.15335719287395477,
		-0.03367236256599426,
		-0.23909340798854828,
		0.35054248571395874,
		0.2815566062927246,
		-0.1360386162996292,
		-0.29247838258743286,
		0.2841305732727051,
		0.3318079710006714,
		-0.31410032510757446,
		-0.09776829183101654,
		-0.3793845474720001,
		-0.02510136552155018,
		0.32505035400390625,
		0.06645932793617249,
		-0.06365913897752762,
		0.36835551261901855,
		-0.1937151849269867,
		-0.05807795003056526,
		-0.3973400890827179,
		-0.3076569736003876,
		0.33253586292266846,
		0.29109880328178406,
		-0.33923572301864624,
		0.18561403453350067,
		-0.24398227035999298,
		0.06866689771413803,
		0.08447207510471344,
		-0.4021663963794708,
		-0.35679104924201965,
		-0.20555490255355835,
		0.061974018812179565,
		-0.2953515350818634,
		0.10994713753461838,
		-0.32837754487991333,
		0.2445792853832245,
		0.1911342889070511,
		0.10270476341247559,
		0.08558577299118042,
		0.05412818118929863,
		-0.36023247241973877,
		-0.10857439786195755,
		-0.12512023746967316,
		-0.22564265131950378,
		-0.4450571537017822,
		-0.07069146633148193,
		0.032929785549640656,
		0.3551325798034668,
		-0.13286471366882324,
		-0.3861791789531708,
		-0.2706623077392578,
		-0.3768276572227478,
		-0.10045663267374039,
		-0.3771769106388092,
		0.14545312523841858,
		0.3661465644836426,
		-0.20783066749572754,
		0.4208964407444,
		-0.06268011778593063,
		-0.3239072561264038,
		0.040818654000759125,
		0.2318519949913025,
		0.04174629971385002,
		-0.0016909337136894464,
		0.2572650611400604,
		-0.20597220957279205,
		0.4151582717895508,
		0.050331681966781616,
		0.290386825799942,
		-0.2867242097854614,
		-0.3052986264228821,
		-0.3236089050769806,
		-0.1256382167339325,
		0.3311253786087036,
		0.0539088100194931,
		0.1576070636510849,
		0.24669978022575378,
		0.3230317533016205,
		0.16341806948184967,
		0.3644179105758667,
		0.479986310005188,
		-0.21638385951519012,
		0.0639207512140274,
		0.22836127877235413,
		-0.297922819852829,
		0.14884626865386963,
		0.4362046420574188,
		0.3142642676830292,
		0.027143120765686035,
		-0.21409785747528076,
		-0.3795856237411499,
		0.29056960344314575,
		-0.40762773156166077,
		-0.33463960886001587,
		0.077489472925663
	],
	"pre_film.0.0.bias": [
		0.21351958811283112,
		-0.24045191705226898,
		0.21749244630336761,
		0.04341255500912666,
		-0.3105149567127228,
		-0.005514953751116991,
		-0.14652119576931,
		-0.27184250950813293,
		-0.25181522965431213,
		-0.3218797445297241,
		-0.11293037980794907,
		-0.11393527686595917,
		-0.2050485610961914,
		-0.1445307433605194,
		0.4027448296546936,
		0.0769137367606163
	],
	"pre_film.1.0.weight": [
		-0.14573371410369873,
		-0.14707568287849426,
		0.05330111086368561,
		0.07657425850629807,
		-0.11264489591121674,
		0.18040946125984192,
		0.20488768815994263,
		-0.13081865012645721,
		-0.26392385363578796,
		0.14979644119739532,
		0.05077999457716942,
		-0.06721505522727966,
		0.10041408240795135,
		-0.13492745161056519,
		0.11605636775493622,
		-0.06969667226076126,
		0.2804192006587982,
		-0.1436016708612442,
		0.05891543999314308,
		-0.22460457682609558,
		0.03963308036327362,
		-0.15671974420547485,
		-0.17376796901226044,
		-0.14909015595912933,
		0.21563304960727692,
		0.27598458528518677,
		0.04315450042486191,
		0.12031883001327515,
		-0.15868398547172546,
		0.03404194861650467,
		-0.07415188103914261,
		0.09101802855730057,
		0.11356309801340103,
		-0.06215916574001312,
		-0.11263930052518845,
		0.20782241225242615,
		0.0871107429265976,
		0.12027831375598907,
		0.03537706658244133,
		-0.09443190693855286,
		-0.1495348960161209,
		0.11190639436244965,
		-0.13413085043430328,
		-0.18538713455200195,
		0.0867404192686081,
		0.0028851174283772707,
		0.20211194455623627,
		-0.11347939819097519,
		0.16458135843276978,
		-0.18956299126148224,
		-0.021086527034640312,
		-0.12677451968193054,
		0.10604805499315262,
		0.12295541167259216,
		-0.12775295972824097,
		0.1616670936346054,
		0.19154299795627594,
		0.2250634729862213,
		0.0875949114561081,
		-0.22962242364883423,
		0.10630321502685547,
		-0.0032696116250008345,
		0.11645414680242538,
		-0.2872256636619568,
		-0.15831361711025238,
		0.15435266494750977,
		-0.10252433270215988,
		0.15128618478775024,
		0.10829266905784607,
		-0.03832412511110306,
		0.11393225193023682,
		0.04459806904196739,
		0.11403147876262665,
		0.0055427588522434235,
		-0.2680507004261017,
		0.20392988622188568,
		-0.27282625436782837,
		-0.24734628200531006,
		-0.0838853269815445,
		-0.22833167016506195,
		-0.06757108122110367,
		-0.16903798282146454,
		-0.06110667809844017,
		0.17945697903633118,
		-0.03627805411815643,
		-0.03565368056297302,
		0.12932099401950836,
		0.18914474546909332,
		-0.004835524130612612,
		0.008532760664820671,
		0.009641108103096485,
		-0.14387555420398712,
		-0.09619881957769394,
		-0.18665248155593872,
		0.26385173201560974,
		-0.17467232048511505,
		-0.15477421879768372,
		-0.02281501330435276,
		-0.04942576214671135,
		-0.014871785417199135,
		0.2422802597284317,
		-0.11773282289505005,
		-0.052908480167388916,
		-0.03458079323172569,
		-0.25741925835609436,
		0.06118342652916908,
		-0.09869498014450073,
		-0.22553977370262146,
		0.0006339402752928436,
		-0.13428780436515808,
		-0.20057709515094757,
		-0.11524398624897003,
		0.015539492480456829,
		0.03862778842449188,
		0.2731270492076874,
		0.10559552162885666,
		0.0212679635733366,
		-0.3063957989215851,
		-0.0852571502327919,
		-0.15681038796901703,
		0.03297596797347069,
		-0.045571718364953995,
		0.06493110954761505,
		-0.06478944420814514,
		0.04856306314468384,
		0.22720342874526978,
		0.18305623531341553,
		0.07313636690378189,
		0.2517513036727905,
		0.2525216341018677,
		-0.07112940400838852,
		0.006202382035553455,
		-0.11730590462684631,
		-0.11189328134059906,
		0.16087336838245392,
		-0.14993523061275482,
		0.10136173665523529,
		-0.06601665169000626,
		-0.0736871138215065,
		-0.15994329750537872,
		-0.1203191801905632,
		-0.012844578363001347,
		-0.11160919815301895,
		-0.03523993864655495,
		-0.14265888929367065,
		-0.2310723513364792,
		0.30656856298446655,
		0.11068689823150635,
		-0.205973818898201,
		-0.0581916868686676,
		-0.13333438336849213,
		-0.38919949531555176,
		0.012108494527637959,
		0.16483068466186523,
		0.048043057322502136,
		-0.27688515186309814,
		-0.13998273015022278,
		-0.0882800817489624,
		-0.07306669652462006,
		0.03277053311467171,
		0.23860062658786774,
		-0.08298911899328232,
		-0.044832147657871246,
		0.1086031123995781,
		0.1467181146144867,
		0.08655689656734467,
		0.09685112535953522,
		0.03603667765855789,
		0.27224960923194885,
		0.07382652908563614,
		0.05522742494940758,
		-0.1474018096923828,
		-0.2133725881576538,
		-0.0879676416516304,
		-0.2867722511291504,
		0.1085563600063324,
		-0.05389096587896347,
		-0.1120167151093483,
		-0.12839891016483307,
		0.07950590550899506,
		-0.15475864708423615,
		-0.02017013356089592,
		0.263523668050766,
		-0.19463349878787994,
		-0.157821923494339,
		-0.02922004461288452,
		-0.13066580891609192,
		0.038300976157188416,
		-0.08945368230342865,
		-0.2032385915517807,
		0.23214538395404816,
		-0.15637332201004028,
		-0.07190027087926865,
		0.12868377566337585,
		-0.1847945600748062,
		0.22982434928417206,
		0.06980794668197632,
		0.11278312653303146,
		-0.18167875707149506,
		0.19160683453083038,
		0.08401915431022644,
		0.024943916127085686,
		0.007025141268968582,
		-0.017143744975328445,
		0.21421055495738983,
		-0.09634280949831009,
		0.0664888396859169,
		-0.09989033639431,
		0.13309592008590698,
		-0.24555246531963348,
		-0.027361953631043434,
		-0.18914705514907837,
		0.043161049485206604,
		0.09284110367298126,
		0.1813673973083496,
		0.3134041726589203,
		0.18459714949131012,
		0.01828581839799881,
		-0.06644326448440552,
		0.0185614712536335,
		0.21333299577236176,
		-0.18995340168476105,
		-0.1932528167963028,
		0.14719951152801514,
		0.014227821491658688,
		0.011655868962407112,
		-0.0720658153295517,
		-0.09434846043586731,
		0.21806716918945312,
		0.12230687588453293,
		0.08585501462221146,
		-0.3060063421726227,
		-0.033905621618032455,
		0.008228902705013752,
		-0.18127289414405823,
		0.11104574799537659,
		-0.197969451546669,
		-0.0020662988536059856,
		0.0634552538394928,
		0.00543587701395154,
		0.22586345672607422,
		-0.09527426213026047,
		0.03714073821902275,
		0.06836921721696854,
		0.12720273435115814,
		0.2609308063983917,
		0.11426933109760284,
		0.12021292746067047,
		0.08657875657081604,
		-0.1253330111503601,
		-0.20216450095176697,
		-0.14659267663955688,
		0.07697656005620956,
		-0.07632513344287872,
		-0.22952386736869812,
		0.26469001173973083
	],
	"pre_film.1.0.bias": [
		0.023007767274975777,
		-0.10941527038812637,
		-0.14522135257720947,
		-0.010325879789888859,
		-0.008574618957936764,
		-0.058024801313877106,
		0.15861362218856812,
		-0.06482472270727158,
		-0.005689158104360104,
		0.15283136069774628,
		-0.057214297354221344,
		-0.13759295642375946,
		-0.026523681357502937,
		-0.05097505450248718,
		0.15800157189369202,
		0.012454640120267868
	],
	"pre_film.2.weight": [
		0.16587089002132416,
		0.17973168194293976,
		-0.02101513370871544,
		-0.10072994232177734,
		-0.0100840600207448,
		-0.02664673700928688,
		-0.016658803448081017,
		0.11461462825536728,
		-0.08127453923225403,
		0.07625846564769745,
		-0.28446733951568604,
		-0.06952082365751266,
		-0.1856505572795868,
		-0.12436022609472275,
		0.09927847236394882,
		0.15413041412830353,
		0.06400369852781296,
		-0.06804502010345459,
		-0.2882886528968811,
		-0.19498810172080994,
		-0.16076143085956573,
		0.011499029584228992,
		-0.08229055255651474,
		0.09021757543087006,
		-0.17431464791297913,
		-0.058195218443870544,
		0.048725470900535583,
		0.2573743462562561,
		0.2880735993385315,
		0.09010281413793564,
		-0.15730828046798706,
		-0.030707575380802155,
		-0.10012351721525192,
		-0.05539035424590111,
		0.22725747525691986,
		0.19128400087356567,
		0.1128740906715393,
		-0.1980143040418625,
		0.04502213001251221,
		0.32496732473373413,
		0.151231586933136,
		0.1309630125761032,
		0.3665882349014282,
		-0.015571843832731247,
		0.1063702180981636,
		0.14938491582870483,
		-0.13947507739067078,
		0.052014075219631195,
		0.047494351863861084,
		0.02312328666448593,
		-0.30506598949432373,
		-0.03633112832903862,
		-0.2186683863401413,
		0.1381610631942749,
		-0.050485577434301376,
		0.05975795164704323,
		-0.13226725161075592,
		0.11263865977525711,
		0.1489323526620865,
		-0.08501781523227692,
		-0.024196328595280647,
		-0.1988207846879959,
		-0.18212342262268066,
		0.19576136767864227,
		-0.001679392415098846,
		-0.17900529503822327,
		0.30960941314697266,
		-0.06707728654146194,
		0.20771822333335876,
		-0.002071769442409277,
		-0.10685840249061584,
		-0.3100632131099701,
		-0.1134251207113266,
		-0.09408058226108551,
		-0.22523099184036255,
		0.029213236644864082,
		-0.08857595175504684,
		0.01983865350484848,
		0.28139084577560425,
		0.020380686968564987,
		-0.0002280808985233307,
		-0.08287464082241058,
		0.16374580562114716,
		0.14048653841018677,
		-0.150316521525383,
		0.07345394045114517,
		-0.009576189331710339,
		0.1458345204591751,
		0.03632340952754021,
		-0.2518209218978882,
		0.040779128670692444,
		0.07881240546703339,
		0.092833012342453,
		0.13802260160446167,
		0.015441066585481167,
		-0.2793811857700348,
		-0.06858164817094803,
		-0.14242152869701385,
		-0.1981305629014969,
		-0.032235562801361084,
		0.2545630633831024,
		0.06318347901105881,
		0.18088677525520325,
		-0.2150743305683136,
		-0.15879179537296295,
		-0.1923932284116745,
		0.1399606615304947,
		-0.1776198148727417,
		-0.14615972340106964,
		0.014005697332322598,
		0.3678167760372162,
		0.1332324892282486,
		-0.1725059151649475,
		-0.0004514681058935821,
		0.17635464668273926,
		-0.008731682784855366,
		-0.14204372465610504,
		-0.24651306867599487,
		-0.07158023864030838,
		-0.07201837003231049,
		-0.2712284028530121,
		-0.11159589141607285,
		0.03550465777516365,
		-0.24351169168949127,
		-0.04843825101852417,
		0.1670246124267578,
		-0.09411356598138809,
		-0.22066107392311096,
		-0.05670815333724022,
		0.026970257982611656,
		-0.19202294945716858,
		0.2948562502861023,
		-0.2765611410140991,
		-0.04241304472088814,
		-0.21733896434307098,
		0.06164415925741196,
		0.15292467176914215,
		-0.015646370127797127,
		-0.11300361156463623,
		0.12768322229385376,
		-0.06575152277946472,
		0.011100207455456257,
		0.07648466527462006,
		0.11098724603652954,
		-0.12028025090694427,
		0.030541716143488884,
		-0.0626707673072815,
		-0.16714265942573547,
		-0.1897769719362259,
		0.22826752066612244,
		0.15922901034355164,
		0.08290545642375946,
		-0.07555276155471802,
		-0.007824503816664219,
		-0.018996426835656166,
		0.2851429283618927,
		-0.1128024086356163,
		-0.02351393736898899,
		-0.12406978756189346,
		0.13489921391010284,
		0.07013420760631561,
		-0.24041865766048431,
		0.11826521903276443,
		0.14021171629428864,
		0.14833113551139832,
		0.21944130957126617,
		0.03729625418782234,
		-0.11070580035448074,
		-0.10535627603530884,
		0.024154795333743095,
		0.07728318125009537,
		0.18892504274845123,
		0.10254180431365967,
		-0.15202632546424866,
		-0.0492926761507988,
		0.051278818398714066,
		0.11419987678527832,
		-0.007846317254006863,
		0.185414656996727,
		-0.1164008378982544,
		-0.19633856415748596,
		0.14242877066135406,
		-0.061939164996147156,
		0.05857417359948158,
		-0.14115862548351288,
		-0.21995100378990173,
		0.18110735714435577,
		-0.20668530464172363,
		0.0799563080072403,
		0.08257561922073364,
		-0.1626417636871338,
		0.18006137013435364,
		0.18787315487861633,
		0.04351953789591789,
		0.0401490181684494,
		-0.19480854272842407,
		0.24589361250400543,
		-0.02073581889271736,
		-0.0450812503695488,
		-0.13106271624565125,
		-0.05192246660590172,
		0.0017556858947500587,
		0.14805357158184052,
		-0.11694511026144028,
		0.04470951110124588,
		-0.29940250515937805,
		0.14312557876110077,
		-0.09348741173744202,
		-0.18766233325004578,
		0.14662334322929382,
		0.228128120303154,
		0.11892957985401154,
		-0.14620082080364227,
		-0.23671410977840424,
		-0.15793007612228394,
		0.12232086807489395,
		0.048108797520399094,
		0.1244407519698143,
		-0.2648496925830841,
		-0.05433989316225052,
		-0.06860325485467911,
		-0.039088521152734756,
		-0.21770069003105164,
		-0.26014503836631775,
		0.030697835609316826,
		-0.23445171117782593,
		0.07037597894668579,
		0.04498644918203354,
		-0.05329664796590805,
		0.06283637881278992,
		-0.11473686993122101,
		-0.01724562607705593,
		0.04773477464914322,
		-0.29104378819465637,
		0.1718747615814209,
		0.2503931224346161,
		0.07785572856664658,
		-0.0399351604282856,
		0.17666785418987274,
		0.077053502202034,
		0.06304588913917542,
		0.1510026603937149,
		-0.10442354530096054,
		-0.2324858456850052,
		0.1970263421535492,
		0.18974870443344116,
		-0.11424358189105988,
		0.15021920204162598,
		-0.16675251722335815,
		0.12463739514350891,
		0.17496204376220703,
		-0.23765380680561066,
		0.10335690528154373,
		0.2609826326370239,
		-0.14790309965610504,
		0.1064879521727562
	],
	"pre_film.2.bias": [
		-0.07654446363449097,
		-0.14410685002803802,
		-0.18360665440559387,
		0.13565275073051453,
		0.22332704067230225,
		0.10113794356584549,
		-0.040715377777814865,
		0.08530363440513611,
		-0.1289319396018982,
		0.20235100388526917,
		0.03190096840262413,
		-0.05571337416768074,
		0.03999878466129303,
		-0.09342468529939651,
		0.049855899065732956,
		-0.14193688333034515
	],
	"blocks.0.conv1.weight": [
		-0.19603580236434937,
		-0.16226688027381897,
		-0.11667592078447342,
		0.13067510724067688,
		0.34920674562454224,
		-0.22083500027656555,
		0.17008619010448456,
		0.22694708406925201,
		-0.20171569287776947,
		0.0821494609117508,
		-0.1821422278881073,
		-0.010024009272456169,
		-0.14814282953739166,
		-0.20216530561447144,
		0.08526839315891266,
		-0.12968997657299042,
		0.04476481303572655,
		0.22587285935878754,
		0.02334371581673622,
		-0.26311585307121277,
		-0.06970489025115967,
		-0.2696637213230133,
		-0.14417192339897156,
		0.11855340003967285,
		-0.12021511048078537,
		0.03318797051906586,
		-0.2510651648044586,
		-0.22289827466011047,
		0.2733839154243469,
		0.1889166384935379,
		0.30671289563179016,
		0.11367467045783997,
		-0.07281295210123062,
		0.05874472111463547,
		-0.33740419149398804,
		0.14757996797561646,
		-0.2985440194606781,
		-0.13371604681015015,
		-0.1960446536540985,
		0.05124201253056526,
		-0.20668919384479523,
		-0.11425082385540009,
		0.06790811568498611,
		0.2093019038438797,
		0.005670218728482723,
		-0.10987433791160583,
		0.22347822785377502,
		0.08723796904087067,
		-0.16765260696411133,
		0.11435342580080032,
		-0.19654950499534607,
		-0.062787264585495,
		0.31614723801612854,
		0.3456334173679352,
		-0.05058674514293671,
		0.10052214562892914,
		-0.10725771635770798,
		-0.01443815790116787,
		0.058915235102176666,
		-0.21135973930358887,
		0.03981080278754234,
		0.16499042510986328,
		0.1524801105260849,
		0.2736859619617462,
		0.23762236535549164,
		0.18965913355350494,
		-0.025309165939688683,
		0.033103667199611664,
		0.19531351327896118,
		0.1621064990758896,
		0.2528148591518402,
		0.2420751005411148,
		-0.20407144725322723,
		-0.07503975182771683,
		-0.1497514694929123,
		0.1584489941596985,
		0.2875114977359772,
		0.15813197195529938,
		-0.2559605836868286,
		-0.007095085456967354,
		-0.06794911623001099,
		-0.20167122781276703,
		0.0668049305677414,
		-0.38820287585258484,
		-0.07132100313901901,
		0.059689465910196304,
		-0.007917546667158604,
		0.31710687279701233,
		-0.07486101239919662,
		0.16823123395442963,
		0.338617205619812,
		0.2467021495103836,
		-0.07954975962638855,
		0.21894776821136475,
		0.10693152248859406,
		0.015070008113980293,
		0.2910839319229126,
		0.17819230258464813,
		-0.14632679522037506,
		0.1604158878326416,
		0.08666346967220306,
		-0.0025121252983808517,
		0.007743821479380131,
		-0.21164877712726593,
		0.0710059106349945,
		0.021680444478988647,
		-0.12452840059995651,
		0.2981109023094177,
		0.3108251392841339,
		0.3067358136177063,
		0.029296275228261948,
		-0.037695374339818954,
		0.14468704164028168,
		-0.07157745957374573,
		-0.1870059221982956,
		-0.10025473684072495,
		-0.05186188593506813,
		-0.030558250844478607,
		0.01954042725265026,
		-0.15814730525016785,
		-0.11691396683454514,
		-0.07897744327783585,
		-0.04701332002878189,
		0.08874963968992233,
		-0.12521135807037354,
		-0.06834333389997482,
		-0.25587230920791626,
		-0.319347620010376,
		-0.15272599458694458,
		-0.2891218364238739,
		0.2094130516052246,
		-0.26662808656692505,
		0.2164486050605774,
		-0.199334517121315,
		-0.2983345091342926,
		-0.0526709109544754,
		0.07752390205860138,
		0.016093136742711067,
		-0.1568092703819275,
		0.09511296451091766,
		0.16724036633968353,
		0.07406218349933624,
		0.2554900348186493,
		0.14621570706367493,
		-0.18308903276920319,
		-0.08557801693677902,
		0.09245392680168152,
		0.21931013464927673,
		0.0336112380027771,
		-0.2167145311832428,
		0.059841033071279526,
		0.23267759382724762,
		-0.07917904853820801,
		-0.23646073043346405,
		0.2262043058872223,
		-0.5376809239387512,
		-0.4305606484413147,
		-0.05044528841972351,
		-0.15366609394550323,
		-0.1098218560218811,
		-0.13987073302268982,
		0.06425014138221741,
		0.09340684860944748,
		0.1632680892944336,
		-0.1111600324511528,
		-0.08207693696022034,
		0.2903120815753937,
		-0.009880985133349895,
		-0.15428167581558228,
		-0.09585969150066376,
		-0.0577373169362545,
		-0.17191429436206818,
		-0.2523520588874817,
		0.255273699760437,
		-0.10022624582052231,
		-0.2314407080411911,
		0.04691734164953232,
		-0.21803155541419983,
		0.2805929481983185,
		0.19924230873584747,
		0.07625329494476318,
		-0.15651315450668335,
		0.12991273403167725,
		0.193130761384964,
		0.07109673321247101,
		-0.14487352967262268,
		-0.29651927947998047,
		0.001401779125444591,
		-0.1514165848493576,
		-0.19037476181983948,
		0.22434785962104797,
		0.12574991583824158,
		0.20371288061141968,
		-0.11566227674484253,
		0.35880064964294434,
		-0.059696462005376816,
		-0.28846386075019836,
		0.1632876992225647,
		-0.08665939420461655,
		0.041967473924160004,
		-0.23831535875797272,
		0.16421647369861603,
		0.16955141723155975,
		0.007937262766063213,
		0.3104974329471588,
		-0.20105765759944916,
		-0.06837136298418045,
		0.1703948676586151,
		0.23424434661865234,
		-0.1837785691022873,
		0.0705392137169838,
		-0.30529382824897766,
		-0.028752950951457024,
		-0.037991393357515335,
		-0.23433370888233185,
		0.08941768109798431,
		-0.07607032358646393,
		0.13055181503295898,
		-0.2032320201396942,
		-0.08288237452507019,
		0.23290029168128967,
		0.33067747950553894,
		0.23697751760482788,
		-0.23673062026500702,
		-0.21029256284236908,
		-0.1099589541554451,
		-0.04119410365819931,
		-0.2526436150074005,
		0.2928365170955658,
		0.2674086093902588,
		0.14696800708770752,
		-0.2628313899040222,
		-0.23767714202404022,
		0.07142504304647446,
		-0.2604943811893463,
		-0.13744527101516724,
		-0.1351640820503235,
		-0.10489190369844437,
		0.21746835112571716,
		0.21763262152671814,
		0.020330052822828293,
		-0.07723011076450348,
		-0.2902106046676636,
		0.1469513177871704,
		-0.2853826582431793,
		0.03094734437763691,
		0.2154838740825653,
		0.13565398752689362,
		0.13472014665603638,
		0.051635146141052246,
		0.0685836672782898,
		-0.24585233628749847,
		0.16409647464752197,
		-0.38550853729248047,
		-0.1401977241039276,
		-0.2536941170692444,
		0.003072437597438693,
		-0.09620009362697601,
		0.16304843127727509,
		-0.25266456604003906,
		0.08393611013889313,
		-0.12095972150564194,
		-0.08430531620979309,
		0.27511700987815857,
		0.21539351344108582,
		0.19486750662326813,
		0.2473132163286209,
		0.21193762123584747,
		0.22181592881679535,
		-0.22554519772529602,
		0.05018384009599686,
		-0.15118533372879028,
		-0.08519524335861206,
		-0.17867614328861237,
		0.3039022386074066,
		-0.14418481290340424,
		0.21990765631198883,
		-0.1372172236442566,
		0.16889935731887817,
		-0.1514560729265213,
		0.1408950537443161,
		0.002202751347795129,
		0.1599276214838028,
		0.11730029433965683,
		0.12365598231554031,
		0.1292564421892166,
		0.055668674409389496,
		0.006705875042825937,
		-0.16216163337230682,
		0.20257370173931122,
		0.20668813586235046,
		-0.0855792835354805,
		-0.008057435974478722,
		0.210282564163208,
		-0.06816143542528152,
		-0.25730523467063904,
		-0.20805317163467407,
		0.2062688171863556,
		0.13477705419063568,
		0.22647015750408173,
		-0.030863774940371513,
		0.11698485910892487,
		0.26686206459999084,
		-0.2439957708120346,
		-0.03245924413204193,
		-0.036451563239097595,
		0.17822512984275818,
		-0.06691435724496841,
		-0.27704447507858276,
		-0.31432539224624634,
		-0.5293744206428528,
		-0.12538515031337738,
		0.23454834520816803,
		0.14503906667232513,
		0.23804476857185364,
		0.02670377679169178,
		0.33408936858177185,
		0.0022880046162754297,
		0.18803463876247406,
		0.041153840720653534,
		0.1576540768146515,
		0.20360709726810455,
		-0.23623445630073547,
		0.09001068025827408,
		0.13531942665576935,
		-0.11662716418504715,
		-0.06420373171567917,
		-0.2805127799510956,
		0.027046147733926773,
		-0.046717509627342224,
		0.15943044424057007,
		-0.03759358078241348,
		0.08362378180027008,
		-0.30543941259384155,
		-0.28279781341552734,
		-0.0664161965250969,
		0.03683013841509819,
		-0.32882314920425415,
		0.18746720254421234,
		0.1850268691778183,
		-0.105855792760849,
		0.13352489471435547,
		-0.24298131465911865,
		0.21007607877254486,
		-0.19118632376194,
		0.20729154348373413,
		-0.05562036111950874,
		-0.05225425958633423,
		-0.11515305936336517,
		0.07173106074333191,
		-0.06959795951843262,
		-0.25744760036468506,
		-0.21132078766822815,
		0.0621730275452137,
		0.5938634276390076,
		-0.222394660115242,
		-0.05517012998461723,
		-0.020920434966683388,
		-0.24818499386310577,
		-9.791896445676684e-05,
		-0.230242058634758,
		0.3244539499282837,
		0.0439881905913353,
		-0.1952534019947052,
		0.087495356798172,
		0.17151369154453278,
		0.03144710138440132,
		-0.051200371235609055,
		-0.24773351848125458,
		-0.28154730796813965,
		-0.2963571548461914,
		0.26258307695388794,
		0.24978207051753998,
		-0.18488410115242004,
		-0.10098370909690857,
		-0.007991678081452847,
		0.05748116597533226,
		-0.04236989468336105,
		0.31784436106681824,
		-0.06297202408313751,
		-0.42682433128356934,
		-0.45644962787628174,
		0.17163129150867462,
		-0.11371949315071106
	],
	"blocks.0.affine.bn.running_mean": [
		4.3736812926908897e-07,
		1.027320195134962e-06,
		3.742519538718625e-08,
		3.024337402735e-08,
		3.0515840876432776e-07,
		-2.6369332317699445e-06,
		1.5385885490104556e-06,
		-1.453895379199821e-06,
		-1.0034215165433125e-06,
		5.6187754893244346e-08,
		1.9269712083769264e-06,
		-1.1013447647201247e-06,
		1.3227231647761073e-06,
		2.498270816886361e-07,
		-4.286968557920545e-09,
		-1.0334604638728706e-07,
		-5.83240137075336e-07,
		3.8345476127688016e-07,
		1.0569389132797369e-06,
		-6.441153459491034e-07,
		2.3026315432161937e-07,
		2.8587982114913757e-07,
		-5.311331392476859e-07,
		-1.0822652711794944e-06,
		-8.819330901133071e-07,
		2.2562633148481837e-06,
		-1.4437180198001442e-06,
		1.3379643633015803e-06,
		1.0924046733862269e-07,
		7.706423730269307e-07,
		6.937490297787008e-07,
		1.032941554512945e-06
	],
	"blocks.0.affine.bn.running_var": [
		0.0002271379198646173,
		0.004036212805658579,
		0.0007481505745090544,
		0.004663989879190922,
		0.0006715742056258023,
		0.02948549948632717,
		0.0031861166935414076,
		0.014284832403063774,
		0.0026824548840522766,
		0.0033711695577949286,
		0.01729370467364788,
		0.002730616135522723,
		0.0017239550361409783,
		0.004700591787695885,
		0.004388864152133465,
		0.000443262659246102,
		0.0006277042557485402,
		0.001456824247725308,
		0.0014147419715300202,
		0.0007661521667614579,
		0.00037908711237832904,
		0.0051462422125041485,
		0.005886871833354235,
		0.005813370458781719,
		0.001112329657189548,
		0.014000646770000458,
		0.017925767228007317,
		0.0053310575895011425,
		1.5124705896596424e-05,
		0.0015122870681807399,
		0.001797687727957964,
		0.004327381961047649
	],
	"blocks.0.affine.bn.num_batches_tracked": [
		19501
	],
	"blocks.0.affine.adaptor.weight": [
		0.25516846776008606,
		-0.22989974915981293,
		-0.01915532536804676,
		-0.029337776824831963,
		-0.09136354178190231,
		-0.14385733008384705,
		0.41130125522613525,
		0.0646182969212532,
		0.14603613317012787,
		-0.25055065751075745,
		-0.26323720812797546,
		0.0016060298075899482,
		-0.06088845059275627,
		0.12311167269945145,
		-6.652560114162043e-05,
		0.1137053444981575,
		0.13091781735420227,
		-0.07834064215421677,
		0.06510190665721893,
		-0.091099314391613,
		0.0204938892275095,
		-0.07424373179674149,
		0.11278867721557617,
		0.09513653069734573,
		-0.21029086410999298,
		0.17104923725128174,
		-0.0017257160507142544,
		0.2080240249633789,
		-0.0351850688457489,
		0.1547400802373886,
		0.058740463107824326,
		0.09921840578317642,
		-0.13190069794654846,
		-0.05609065666794777,
		0.13183268904685974,
		0.04418136924505234,
		0.2707408666610718,
		0.007084905169904232,
		0.0640123039484024,
		-0.11456967145204544,
		0.06864894181489944,
		-0.14414668083190918,
		-0.22678880393505096,
		-0.03954794257879257,
		-0.16562898457050323,
		-0.2806791663169861,
		0.06553828716278076,
		0.2585723102092743,
		-0.2140839695930481,
		-0.1023813933134079,
		-0.18709424138069153,
		-0.11547792702913284,
		-0.11326386779546738,
		-0.09629802405834198,
		0.19776256382465363,
		0.15012386441230774,
		0.20444723963737488,
		-0.0077188871800899506,
		0.05359063297510147,
		-0.010532606393098831,
		0.0551738515496254,
		0.022650931030511856,
		0.06452082842588425,
		-0.1416938453912735,
		0.021689405664801598,
		-0.1309041678905487,
		-0.13860653340816498,
		-0.2308378368616104,
		0.09673977643251419,
		0.005949844606220722,
		-0.052590757608413696,
		0.05583660304546356,
		0.26328545808792114,
		0.12004595994949341,
		-0.15775954723358154,
		-0.014208593405783176,
		0.0405682735145092,
		-0.22286322712898254,
		0.20229053497314453,
		0.00935450755059719,
		-0.01725948601961136,
		0.22025306522846222,
		0.12387508898973465,
		0.1881229728460312,
		-0.0980679988861084,
		0.1814722865819931,
		0.049061745405197144,
		0.21680842339992523,
		0.20483943819999695,
		-0.2328711450099945,
		-0.11049734055995941,
		-0.19072642922401428,
		0.022924605756998062,
		0.2131880521774292,
		-0.1731148064136505,
		-0.15812276303768158,
		0.16212046146392822,
		0.12889234721660614,
		0.11042357981204987,
		0.15034450590610504,
		0.032203737646341324,
		0.06191190704703331,
		-0.16868628561496735,
		-0.11944014579057693,
		0.15309081971645355,
		-0.11719316989183426,
		0.18354292213916779,
		-0.045247916132211685,
		-0.1364792436361313,
		0.00048600565060041845,
		-0.08341410756111145,
		0.1346140205860138,
		0.08504292368888855,
		0.06036330386996269,
		-0.03951219841837883,
		0.04118845984339714,
		0.11679936200380325,
		0.1008002832531929,
		0.17697277665138245,
		0.029584482312202454,
		0.011498384177684784,
		-0.12536075711250305,
		0.010235078632831573,
		0.2078850120306015,
		0.12805889546871185,
		0.1788545399904251,
		0.028360849246382713,
		0.1552465260028839,
		0.13814964890480042,
		-0.11070562154054642,
		0.10042886435985565,
		-0.2181052714586258,
		-0.031092531979084015,
		-0.11043522506952286,
		0.0654492974281311,
		0.09897473454475403,
		0.12205120921134949,
		0.17016485333442688,
		-0.1097378209233284,
		-0.15892988443374634,
		0.17158348858356476,
		0.15405389666557312,
		-0.12260385602712631,
		-0.0632389634847641,
		0.12495149672031403,
		0.05101222172379494,
		-0.18444271385669708,
		0.13465085625648499,
		-0.183369442820549,
		-0.0825076550245285,
		-0.09001563489437103,
		-0.026541296392679214,
		-0.28873199224472046,
		-0.04581839218735695,
		-0.041494641453027725,
		0.1915484219789505,
		-0.2256905883550644,
		0.22596260905265808,
		0.15569551289081573,
		-0.032508473843336105,
		-0.08602861315011978,
		0.04643428698182106,
		-0.1584022492170334,
		-0.08824760466814041,
		0.18052071332931519,
		0.270961731672287,
		0.10692911595106125,
		0.16704125702381134,
		0.06478305906057358,
		0.09374560415744781,
		0.1731913834810257,
		-0.1885354220867157,
		-0.030285315588116646,
		-0.10348782688379288,
		0.20362253487110138,
		0.2189045548439026,
		-0.06554898619651794,
		-0.2239244431257248,
		-0.01180060114711523,
		-0.18468265235424042,
		-0.18851982057094574,
		0.22572314739227295,
		-0.07674099504947662,
		-0.06973038613796234,
		-0.09842673689126968,
		0.23625007271766663,
		0.19454827904701233,
		-0.05455835163593292,
		0.009286314249038696,
		0.09173648804426193,
		-0.11597619205713272,
		0.04688073322176933,
		0.2750079333782196,
		0.08056262135505676,
		-0.1724923849105835,
		-0.07358957827091217,
		-0.044491980224847794,
		0.0714368224143982,
		0.10981050133705139,
		-0.03515526279807091,
		-0.10039380192756653,
		0.17625045776367188,
		-0.08525368571281433,
		-0.22174924612045288,
		-0.012886959128081799,
		-0.1455020010471344,
		0.13847559690475464,
		-0.13606715202331543,
		0.061318811029195786,
		0.1759139746427536,
		0.2961658537387848,
		0.02053300105035305,
		-0.3116436004638672,
		0.27584758400917053,
		0.04487360641360283,
		0.2001713216304779,
		0.18917059898376465,
		0.0164015032351017,
		-0.023737285286188126,
		-0.030891137197613716,
		0.16335025429725647,
		0.21000628173351288,
		-0.10731019079685211,
		0.1707148551940918,
		-0.04649937152862549,
		-0.21012666821479797,
		0.10240236669778824,
		-0.21105512976646423,
		-0.1980036348104477,
		0.07197976857423782,
		0.006187831982970238,
		-0.04526739567518234,
		0.1791008859872818,
		-0.19029979407787323,
		-0.11245255917310715,
		0.01747051440179348,
		0.18275420367717743,
		0.10512401163578033,
		-0.22955647110939026,
		0.036947961896657944,
		0.10470675677061081,
		-0.0536862351000309,
		-0.12919503450393677,
		-0.23411625623703003,
		-0.12506325542926788,
		0.046762458980083466,
		0.4051026403903961,
		0.10587240010499954,
		0.0959305614233017,
		0.2293592244386673,
		-0.24850869178771973,
		0.1595231145620346,
		-0.1055164560675621,
		-0.010538578033447266,
		0.19871994853019714,
		0.037716787308454514,
		0.07183381170034409,
		0.1497877836227417,
		0.06560929119586945,
		-0.13596802949905396,
		-0.23005396127700806,
		0.16549690067768097,
		0.03859966620802879,
		-0.06477561593055725,
		-0.20371046662330627,
		0.07889874279499054,
		0.14709560573101044,
		-0.07458478212356567,
		0.11510856449604034,
		0.10465499758720398,
		-0.1046341136097908,
		0.23196476697921753,
		-0.01600348949432373,
		0.22584182024002075,
		-0.17376576364040375,
		-0.05466949939727783,
		-0.12142363935709,
		0.11740251630544662,
		0.16012053191661835,
		-0.06695816665887833,
		0.05639534443616867,
		0.17321230471134186,
		0.07539646327495575,
		0.046051379293203354,
		0.0622977688908577,
		0.20250079035758972,
		-0.21055494248867035,
		-0.005195940844714642,
		0.292614221572876,
		0.1845369189977646,
		0.07638593018054962,
		0.06282617151737213,
		-0.26164981722831726,
		0.16039685904979706,
		0.14905047416687012,
		-0.20042143762111664,
		-0.024023719131946564,
		0.13910195231437683,
		-0.025935214012861252,
		-0.018086889758706093,
		-0.15967583656311035,
		0.12277951836585999,
		-0.14930005371570587,
		-0.18754394352436066,
		0.11435333639383316,
		0.09263762831687927,
		0.1484583467245102,
		-0.00802815891802311,
		-0.16447336971759796,
		0.2826959192752838,
		0.22354178130626678,
		0.24744093418121338,
		-0.21840640902519226,
		-0.19240419566631317,
		0.08452896773815155,
		0.2140069603919983,
		-0.057703305035829544,
		0.1882261335849762,
		0.1593732237815857,
		0.2424338161945343,
		0.1648256480693817,
		-0.1107821837067604,
		-0.0025484953075647354,
		-0.15773653984069824,
		0.009546156972646713,
		0.17297010123729706,
		-0.006563721690326929,
		-0.12111092358827591,
		0.13417775928974152,
		0.07450069487094879,
		0.014973895624279976,
		0.16680584847927094,
		0.2741036117076874,
		-0.049028754234313965,
		0.056411027908325195,
		-0.2152359038591385,
		0.18076209723949432,
		0.18374675512313843,
		0.23434986174106598,
		-0.24140366911888123,
		-0.09271380305290222,
		-0.09442268311977386,
		-0.23547986149787903,
		0.08476328104734421,
		0.09380089491605759,
		-0.01296931877732277,
		0.0028866734355688095,
		0.11605784296989441,
		-0.13960960507392883,
		0.06565335392951965,
		-0.0684615895152092,
		0.21310994029045105,
		0.12739399075508118,
		-0.12280315160751343,
		0.23541273176670074,
		0.17459820210933685,
		-0.1507742702960968,
		-0.1142374724149704,
		-0.00782821886241436,
		0.043049849569797516,
		-0.18567068874835968,
		0.02773515321314335,
		0.03134734928607941,
		0.11934792250394821,
		-0.009072395041584969,
		0.16370666027069092,
		0.23124092817306519,
		0.17572540044784546,
		0.004216398112475872,
		0.013874846510589123,
		-0.04512276127934456,
		0.10844995826482773,
		0.24523678421974182,
		0.008841689676046371,
		0.0412059985101223,
		-0.18370789289474487,
		0.15673677623271942,
		0.16408692300319672,
		-0.027086332440376282,
		0.02442597970366478,
		0.12396509200334549,
		0.06971951574087143,
		-0.04288352280855179,
		0.19673506915569305,
		-0.3097836375236511,
		0.0751858651638031,
		-0.05285532772541046,
		-0.19083631038665771,
		-0.11254183948040009,
		0.29480114579200745,
		0.057419609278440475,
		-0.10018045455217361,
		0.04872040078043938,
		0.05006682127714157,
		0.012962750159204006,
		-0.18760018050670624,
		-0.07618385553359985,
		-0.23968257009983063,
		0.034092653542757034,
		-0.06733740866184235,
		0.005467501934617758,
		0.043754059821367264,
		-0.027821067720651627,
		-0.0436704084277153,
		8.458264346700162e-05,
		-0.15714696049690247,
		0.051723189651966095,
		-0.3830359876155853,
		-0.08351181447505951,
		0.13551755249500275,
		0.04535070061683655,
		0.07376517355442047,
		0.1700354516506195,
		0.026359301060438156,
		0.03777248039841652,
		0.2972929775714874,
		0.07400073856115341,
		0.15529970824718475,
		-0.05006970092654228,
		0.038320768624544144,
		-0.05485336482524872,
		0.14929330348968506,
		0.10774504393339157,
		0.12551189959049225,
		-0.19729924201965332,
		-0.013496343046426773,
		-0.1723036766052246,
		0.11895617842674255,
		0.09974507242441177,
		0.154386505484581,
		-0.23274914920330048,
		0.19379721581935883,
		0.17579394578933716,
		-0.2722502648830414,
		0.31414151191711426,
		-0.17736215889453888,
		-0.10989497601985931,
		-0.11810215562582016,
		-0.03016103431582451,
		0.11776207387447357,
		0.05405178293585777,
		0.20884931087493896,
		-0.21053427457809448,
		-0.12433962523937225,
		-0.04337393119931221,
		-0.061077866703271866,
		0.057397276163101196,
		0.05471186339855194,
		0.10296835005283356,
		0.21619738638401031,
		0.125343456864357,
		-0.111506387591362,
		0.07170212268829346,
		-0.03529415279626846,
		0.46843957901000977,
		0.555017352104187,
		-0.026500120759010315,
		-0.25302624702453613,
		-0.363852322101593,
		-0.20322185754776,
		-0.1796341985464096,
		0.15720395743846893,
		-0.3351317346096039,
		0.24322307109832764,
		-0.091420978307724,
		0.2635819911956787,
		-0.22692100703716278,
		-0.16759727895259857,
		-0.02133471891283989,
		-0.20026910305023193,
		0.021869730204343796,
		-0.1564820110797882,
		0.19992166757583618,
		-0.002280936110764742,
		0.26585471630096436,
		-0.2015453279018402,
		0.0810643807053566,
		0.045809533447027206,
		-0.18796522915363312,
		0.11021552234888077,
		-0.017765125259757042,
		-0.13761518895626068,
		0.06775309890508652,
		-0.20871184766292572,
		0.25998353958129883,
		0.005138207692652941,
		0.2829529047012329,
		0.05731813982129097,
		-0.10342380404472351,
		0.2516147196292877,
		-0.0952848494052887,
		0.09690213203430176,
		-0.006099645514041185,
		-0.0053194137290120125,
		0.24559609591960907,
		-0.11360066384077072,
		-0.06642960757017136,
		0.052285823971033096,
		-0.12045200914144516,
		0.022540859878063202,
		-0.24334920942783356,
		-0.18701030313968658,
		0.1808239072561264,
		0.027576399967074394,
		-0.10885362327098846,
		-0.294393390417099,
		-0.14133773744106293,
		-0.20090319216251373,
		0.1130719855427742,
		0.2607683539390564,
		0.16290989518165588,
		0.14624536037445068,
		0.08695557713508606,
		-0.055750973522663116,
		0.1764175146818161,
		0.16441714763641357,
		0.21192596852779388,
		0.12832723557949066,
		0.19857165217399597,
		-0.14433756470680237,
		0.0972149446606636,
		-0.16394421458244324,
		-0.004928024020045996,
		-0.08643864840269089,
		-0.22422923147678375,
		0.1793716996908188,
		0.13016438484191895,
		-0.12419112771749496,
		0.15208521485328674,
		0.2098897397518158,
		-0.14684323966503143,
		0.07811924070119858,
		-0.10657420754432678,
		0.13364462554454803,
		0.24522854387760162,
		-0.051917701959609985,
		0.2648354768753052,
		-0.16848573088645935,
		-0.05076450854539871,
		-0.07229781895875931,
		-0.06340168416500092,
		0.11968227475881577,
		-0.03861289843916893,
		0.19618071615695953,
		0.025456123054027557,
		-0.2544402480125427,
		0.03037889301776886,
		-0.1879713535308838,
		-0.08525028824806213,
		-0.034679803997278214,
		-0.026221001520752907,
		-0.24718549847602844,
		0.12709064781665802,
		0.17215994000434875,
		-0.013685106299817562,
		-0.01669827289879322,
		0.07148513197898865,
		0.07090025395154953,
		0.1131255179643631,
		0.14200931787490845,
		0.15388955175876617,
		0.1732960343360901,
		-0.05835045129060745,
		-0.03524871543049812,
		-0.09800081700086594,
		0.05487300455570221,
		0.04676621034741402,
		-0.13056577742099762,
		-0.08063698559999466,
		-0.056120842695236206,
		0.14830830693244934,
		0.05565008521080017,
		-0.12543755769729614,
		-0.12372038513422012,
		0.1945924013853073,
		0.05463242903351784,
		-0.19572585821151733,
		0.20836713910102844,
		-0.029873348772525787,
		0.012414183467626572,
		0.011218845844268799,
		0.06762179732322693,
		-0.023802239447832108,
		-0.21994531154632568,
		-0.2296007126569748,
		-0.18356168270111084,
		-0.026311831548810005,
		-0.04652079939842224,
		0.08356383442878723,
		-0.20764826238155365,
		0.02784072794020176,
		0.027725087478756905,
		-0.1375848650932312,
		-0.04404604062438011,
		-0.047964032739400864,
		-0.147040456533432,
		0.015029305592179298,
		-0.14098839461803436,
		-0.05293643847107887,
		0.12350345402956009,
		-0.09163668751716614,
		0.06923473626375198,
		-0.12155438214540482,
		-0.10008946806192398,
		-0.03023003414273262,
		-0.09022945910692215,
		-0.2638991177082062,
		-0.07107432186603546,
		0.08643565326929092,
		0.06717181950807571,
		0.14572745561599731,
		-0.2014670968055725,
		-0.03583803027868271,
		-0.17789311707019806,
		-0.1681852638721466,
		0.18751904368400574,
		-0.2044704407453537,
		0.19593441486358643,
		0.13502943515777588,
		-0.0970846638083458,
		0.14356623589992523,
		-0.1286800652742386,
		0.16814981400966644,
		-0.1047310158610344,
		-0.05771256610751152,
		0.3025899827480316,
		-0.23729561269283295,
		0.10325892269611359,
		-0.1747771054506302,
		0.07901030778884888,
		0.1258215457201004,
		0.23399122059345245,
		0.25407323241233826,
		-0.001504504936747253,
		0.1362699419260025,
		-0.17988987267017365,
		-0.003836108837276697,
		0.08693636953830719,
		0.1234152689576149,
		-0.00566128920763731,
		-0.04890746623277664,
		0.04695869982242584,
		0.09349311888217926,
		-0.05821375548839569,
		0.11159707605838776,
		-0.16897046566009521,
		0.08692184090614319,
		0.08332708477973938,
		-0.0334605947136879,
		-0.22422076761722565,
		0.10323049128055573,
		-0.08258794993162155,
		0.08391563594341278,
		0.12448589503765106,
		0.04420127347111702,
		0.15982882678508759,
		-0.09435432404279709,
		0.24529367685317993,
		-0.10510434210300446,
		-0.19784009456634521,
		0.16985666751861572,
		0.01244370173662901,
		-0.07854576408863068,
		0.1456945836544037,
		0.09111674129962921,
		-0.23492199182510376,
		-0.039782121777534485,
		-0.08572720736265182,
		-0.11794041842222214,
		-0.2320147156715393,
		-0.2733899652957916,
		-0.0447687990963459,
		0.25129592418670654,
		0.10381152480840683,
		0.029375681653618813,
		-0.08414404094219208,
		0.14339907467365265,
		-0.1294890195131302,
		0.0005787954432889819,
		-0.12178219854831696,
		-0.14847679436206818,
		0.16401831805706024,
		-0.12767918407917023,
		0.1602242887020111,
		-0.034455008804798126,
		-0.19936689734458923,
		-0.16267059743404388,
		-0.12302063405513763,
		-0.13892294466495514,
		0.14436329901218414,
		0.03667658567428589,
		-0.10459399223327637,
		-0.2035600244998932,
		-0.13556654751300812,
		0.1719668060541153,
		0.10864359885454178,
		-0.034685343503952026,
		0.05493580177426338,
		0.060300011187791824,
		-0.26969093084335327,
		0.12462645769119263,
		-0.05961669981479645,
		-0.1748323291540146,
		0.05219552293419838,
		0.15815606713294983,
		0.014056375250220299,
		-0.13316796720027924,
		0.019064484164118767,
		-0.21906797587871552,
		-0.1654532551765442,
		-0.3061070442199707,
		0.03209361806511879,
		-0.2361878603696823,
		-0.10149353742599487,
		-0.05010112375020981,
		0.19493108987808228,
		0.1258998066186905,
		0.023154357448220253,
		-0.07969001680612564,
		0.16996043920516968,
		0.08376102894544601,
		-0.04176011309027672,
		-0.12618021667003632,
		0.19808384776115417,
		-0.03461265563964844,
		-0.14026641845703125,
		-0.01594373770058155,
		0.07620637863874435,
		-0.08111684024333954,
		0.11189620196819305,
		-0.07432030886411667,
		0.09014737606048584,
		0.0931524932384491,
		0.04586191102862358,
		0.1964477151632309,
		-0.1858690232038498,
		-0.07633665949106216,
		-0.16223469376564026,
		-0.045002587139606476,
		-0.06821218878030777,
		-0.09768712520599365,
		-0.22641494870185852,
		-0.1053115576505661,
		0.10698480904102325,
		-0.13571880757808685,
		-0.07158691436052322,
		0.17530837655067444,
		0.1580701470375061,
		0.07875438779592514,
		0.235129252076149,
		0.05534035339951515,
		0.043017446994781494,
		0.2925526201725006,
		0.24087372422218323,
		0.08572667092084885,
		-0.013087465427815914,
		0.00544608011841774,
		0.16525432467460632,
		0.09118875861167908,
		-0.07635021954774857,
		-0.2323276698589325,
		-0.050345297902822495,
		0.08095396310091019,
		-0.1409333050251007,
		0.10208398103713989,
		0.013745995238423347,
		0.05880416929721832,
		0.19067777693271637,
		-0.22487330436706543,
		-0.11492960900068283,
		-0.08215301483869553,
		-0.1716773957014084,
		0.052569542080163956,
		-0.0625310018658638,
		0.11101076006889343,
		0.1235550045967102,
		0.19772323966026306,
		-0.17948417365550995,
		-0.09218865633010864,
		-0.049314744770526886,
		0.04390367120504379,
		-0.17652466893196106,
		0.015250359661877155,
		-0.1672951728105545,
		-0.13495460152626038,
		-0.22326774895191193,
		0.007773087825626135,
		0.022254997864365578,
		-0.05430929735302925,
		-0.06631729006767273,
		0.017863614484667778,
		-0.030320610851049423,
		-0.12752817571163177,
		0.23580065369606018,
		0.051819611340761185,
		-0.10941212624311447,
		-0.06724352389574051,
		-0.19740895926952362,
		-0.08711955696344376,
		-0.24001942574977875,
		-0.07925615459680557,
		-0.024585619568824768,
		-0.13975907862186432,
		0.24524450302124023,
		0.1618937999010086,
		0.05568360909819603,
		-0.049899715930223465,
		-0.04541608691215515,
		-0.025579258799552917,
		0.18881545960903168,
		0.1345311552286148,
		-0.05809337645769119,
		-0.16434286534786224,
		0.1803884357213974,
		0.1326681673526764,
		-0.03804697096347809,
		-0.17254583537578583,
		0.016048049554228783,
		0.32779553532600403,
		-0.12924574315547943,
		-0.31330379843711853,
		-0.10970975458621979,
		0.0875515565276146,
		-0.08501773327589035,
		0.27512243390083313,
		0.046413272619247437,
		0.0739172175526619,
		0.21749061346054077,
		0.1764708161354065,
		-0.10562487691640854,
		-0.26428353786468506,
		-0.13589978218078613,
		-0.10587646812200546,
		0.12585994601249695,
		-0.05629070848226547,
		-0.000677873904351145,
		-0.1827353984117508,
		0.1352497637271881,
		-0.18126466870307922,
		0.03925038501620293,
		0.03896879404783249,
		-0.21938100457191467,
		0.00588621012866497,
		0.08215608447790146,
		0.08796777576208115,
		-0.00887136161327362,
		0.085406094789505,
		0.20516017079353333,
		0.18373538553714752,
		0.12300018221139908,
		0.1765277236700058,
		-0.15783336758613586,
		-0.2468382865190506,
		-0.03794977441430092,
		-0.21694408357143402,
		-0.045804403722286224,
		0.18317373096942902,
		0.14797398447990417,
		0.09455034881830215,
		-0.08853615820407867,
		0.2185116410255432,
		0.24668847024440765,
		-0.1976243108510971,
		0.2700690031051636,
		0.04792105406522751,
		0.23045672476291656,
		-0.15683233737945557,
		-0.16672784090042114,
		-0.11505550891160965,
		-0.06462518125772476,
		0.03797348961234093,
		-0.13576437532901764,
		0.027931803837418556,
		-0.27212023735046387,
		-0.000864931324031204,
		-0.18463648855686188,
		0.05206307768821716,
		-0.09154946357011795,
		0.010976382531225681,
		-0.03288782387971878,
		0.24264433979988098,
		0.3143167197704315,
		0.2043594866991043,
		-0.09473174810409546,
		-0.0945293977856636,
		0.21822622418403625,
		0.11393283307552338,
		-0.029778389260172844,
		0.12577077746391296,
		-0.1233375072479248,
		-0.0764264315366745,
		0.0829450711607933,
		0.020222198218107224,
		0.008723734878003597,
		0.17992885410785675,
		-0.05593029037117958,
		-0.022466963157057762,
		-0.16859599947929382,
		0.12987788021564484,
		-5.3258423577062786e-05,
		-0.2099628746509552,
		-0.14962263405323029,
		0.14931441843509674,
		0.10220175236463547,
		-0.31691327691078186,
		0.025254424661397934,
		0.15168972313404083,
		-0.2331451177597046,
		0.261661559343338,
		0.018221789970993996,
		-0.04106221720576286,
		0.09975837916135788,
		0.03469269350171089,
		0.022303830832242966,
		-0.23822636902332306,
		-0.17735005915164948,
		-0.24679279327392578,
		-0.2065097540616989,
		-0.16242054104804993,
		0.14935222268104553,
		-0.04066340997815132,
		-0.09756094217300415,
		0.13823045790195465,
		-0.08074977248907089,
		-0.1499694287776947,
		-0.040876779705286026,
		-0.06055808067321777,
		-0.05156673491001129,
		0.12536029517650604,
		0.020563416182994843,
		-0.05311458185315132,
		-0.20775564014911652,
		0.12911567091941833,
		-0.09131790697574615,
		0.2710905969142914,
		0.13835103809833527,
		0.044789183884859085,
		0.196798637509346,
		-0.20040707290172577,
		0.055759649723768234,
		-0.21328002214431763,
		0.2245255410671234,
		-0.20884652435779572,
		0.06993349641561508,
		0.012521600350737572,
		0.11607880145311356,
		0.058916836977005005,
		-0.13667845726013184,
		-0.31296974420547485,
		0.10621260106563568,
		-0.0769432783126831,
		-0.30945128202438354,
		-0.092458076775074,
		0.12560869753360748,
		0.19018316268920898,
		0.18899084627628326,
		-0.2065584510564804,
		-0.171939417719841,
		-0.280152291059494,
		-0.13756123185157776,
		-0.14397086203098297,
		-0.1776076853275299,
		0.030351774767041206,
		0.1525670886039734,
		0.017909519374370575,
		-0.08950255066156387,
		0.05595654249191284,
		-0.03090508282184601,
		-0.1052325889468193,
		0.24608665704727173,
		0.11379469931125641,
		-0.16160142421722412,
		0.16266852617263794,
		0.0144263980910182,
		-0.10894716531038284,
		-0.0704774335026741,
		-0.13282404839992523,
		0.07203593850135803,
		0.15158690512180328,
		-0.16256095468997955,
		-0.07078828662633896,
		0.18801894783973694,
		-0.08446483314037323,
		0.27337998151779175,
		0.030733218416571617,
		-0.24068975448608398,
		0.1109917163848877,
		-0.25739920139312744,
		0.18654555082321167,
		-0.00698874844238162,
		0.024059711024165154,
		-0.15946964919567108,
		0.03463698551058769,
		0.03648892045021057,
		0.10053635388612747,
		0.2562522292137146,
		0.0801154375076294,
		0.15158016979694366,
		0.0781741738319397,
		-0.1732761561870575,
		-0.2586802840232849,
		0.12039119005203247,
		-0.1604587435722351,
		-0.10076477378606796,
		0.07446359097957611,
		0.12829336524009705,
		-0.06124376505613327,
		-0.013606795109808445,
		-0.03772878274321556,
		-0.15459595620632172,
		-0.04999932274222374,
		-0.21794240176677704,
		-0.1603802591562271,
		0.02833973616361618,
		0.07971186190843582,
		0.12940433621406555,
		0.13639351725578308,
		0.03373003005981445,
		0.18549536168575287,
		-0.046229127794504166,
		0.06874259561300278,
		0.1288575530052185,
		0.093651182949543,
		0.12964613735675812
	],
	"blocks.0.affine.adaptor.bias": [
		-0.12958885729312897,
		0.05899215489625931,
		-0.13528333604335785,
		0.06001732125878334,
		-0.0635589137673378,
		0.13848090171813965,
		0.1748437136411667,
		-0.10264122486114502,
		-0.18767283856868744,
		0.176579087972641,
		0.22228741645812988,
		0.19238844513893127,
		0.1698726862668991,
		0.013748835772275925,
		0.09258479624986649,
		-0.16941124200820923,
		0.1735280156135559,
		-0.1728266030550003,
		0.11545019596815109,
		-0.10621459037065506,
		0.2658112049102783,
		-0.10772527009248734,
		0.16887813806533813,
		0.1500273495912552,
		0.08666346967220306,
		-0.10678718984127045,
		0.055540602654218674,
		0.10966610163450241,
		0.04326360672712326,
		-0.006380070466548204,
		-0.059924595057964325,
		0.1368875652551651,
		0.1757110059261322,
		0.19417554140090942,
		-0.04418013617396355,
		-0.05145113170146942,
		0.05031885951757431,
		-0.27992546558380127,
		0.14103087782859802,
		-0.41431936621665955,
		-0.18596263229846954,
		-0.0037573857698589563,
		-0.17571303248405457,
		-0.09498082101345062,
		-0.14525915682315826,
		-0.04824736714363098,
		0.09430170804262161,
		0.1475013941526413,
		-0.017680514603853226,
		-0.048238471150398254,
		0.1425049602985382,
		-0.08792264014482498,
		-0.008481043390929699,
		-0.23410789668560028,
		-0.132375106215477,
		-0.04755023866891861,
		0.2693362832069397,
		-0.15470436215400696,
		0.041203759610652924,
		-0.200572669506073,
		1.6088478565216064,
		-0.05864264443516731,
		0.144306018948555,
		0.09582224488258362
	],
	"blocks.0.res.weight": [
		-0.28736457228660583,
		0.5168325901031494,
		-0.30164194107055664,
		-0.8045300245285034,
		0.6942296624183655,
		0.7369621396064758,
		1.0603035688400269,
		0.5062501430511475,
		-0.8323870897293091,
		0.1955418735742569,
		-0.8917586803436279,
		-0.9497588872909546,
		-0.3252080976963043,
		-0.6298968195915222,
		0.7661654949188232,
		-0.8610770106315613,
		-0.017522916197776794,
		-0.9700112342834473,
		-0.08121412247419357,
		-0.2598050534725189,
		0.9065747261047363,
		-0.5673593282699585,
		0.03140546381473541,
		-0.44982150197029114,
		-0.7155630588531494,
		-0.8922805190086365,
		0.3103587329387665,
		0.6083980798721313,
		0.6214883923530579,
		0.15834717452526093,
		0.7145330309867859,
		-0.4754205048084259
	],
	"blocks.1.conv1.weight": [
		0.03874865919351578,
		0.010413539595901966,
		0.06040055304765701,
		0.047114551067352295,
		0.009882964193820953,
		-0.026085952296853065,
		0.029201259836554527,
		-0.007547869347035885,
		-0.08375683426856995,
		-0.11575879901647568,
		-0.051529549062252045,
		0.04298675060272217,
		-0.033397238701581955,
		0.002448895014822483,
		-0.030819902196526527,
		-0.03557353466749191,
		0.06265527755022049,
		-0.03179800137877464,
		-0.0052023399621248245,
		0.10386471450328827,
		0.1315237432718277,
		0.034424781799316406,
		-0.08349708467721939,
		-0.08164522796869278,
		-0.04106476902961731,
		-0.11187304556369781,
		-0.0980938971042633,
		0.000384639686672017,
		0.037677083164453506,
		0.07252677530050278,
		0.08626005798578262,
		0.07755713164806366,
		0.016008229926228523,
		0.008953887037932873,
		0.03744838759303093,
		0.11085204780101776,
		0.018620530143380165,
		0.036198996007442474,
		-0.007922530174255371,
		-0.028750773519277573,
		0.010355955921113491,
		-0.03953200951218605,
		0.027383416891098022,
		-0.009665360674262047,
		0.0629456490278244,
		0.08191003650426865,
		0.045095883309841156,
		-0.0026640871074050665,
		-0.011069306172430515,
		0.05782553553581238,
		0.10948041826486588,
		0.132582426071167,
		0.22946546971797943,
		0.23015689849853516,
		0.06700237095355988,
		0.06842474639415741,
		-0.003924184013158083,
		0.007307328283786774,
		0.02837834134697914,
		0.06407611072063446,
		0.049018070101737976,
		-0.049115508794784546,
		0.025292295962572098,
		-0.0019893303979188204,
		0.0015460856957361102,
		0.014627844095230103,
		0.0024016867391765118,
		0.017101338133215904,
		-0.08789726346731186,
		-0.013620177283883095,
		0.012233461253345013,
		-0.04968826472759247,
		-0.02327285148203373,
		-0.0294807069003582,
		0.19334745407104492,
		0.24689675867557526,
		0.12116126716136932,
		0.05055293068289757,
		0.04633680358529091,
		0.08519606292247772,
		0.0798245221376419,
		0.09055355936288834,
		0.1010974571108818,
		0.02415960095822811,
		0.025195565074682236,
		-0.009884566068649292,
		-0.017807157710194588,
		0.029091302305459976,
		0.050202906131744385,
		0.004040386062115431,
		0.046995218843221664,
		0.11373698711395264,
		0.03677705302834511,
		0.04439805448055267,
		0.08703476190567017,
		0.021525679156184196,
		-0.05957019701600075,
		-0.03795569762587547,
		0.0021740421652793884,
		0.05973365530371666,
		0.02373889833688736,
		0.02356693521142006,
		0.0062600113451480865,
		-0.04564579948782921,
		-0.026429181918501854,
		0.010872586630284786,
		-0.01869102008640766,
		0.03548317402601242,
		0.11037016659975052,
		0.07263214141130447,
		-0.02581631951034069,
		-0.030179470777511597,
		0.033091478049755096,
		0.09544166177511215,
		0.2537892460823059,
		0.12913796305656433,
		0.06745506823062897,
		0.006411293521523476,
		-0.02899770438671112,
		0.035554636269807816,
		-0.08728162944316864,
		-0.05782639980316162,
		-0.007099931128323078,
		-0.024189205840229988,
		-0.02219349890947342,
		-0.06496717780828476,
		-0.05372969061136246,
		-0.017622388899326324,
		0.09632387012243271,
		0.10918564349412918,
		0.028109733015298843,
		0.0343913696706295,
		-0.0022700598929077387,
		-0.06656939536333084,
		0.06672266125679016,
		-0.010169083252549171,
		0.06675387918949127,
		-0.006035567261278629,
		-0.00017162426956929266,
		-0.06936147809028625,
		0.022540120407938957,
		0.07044506072998047,
		0.01235273014754057,
		-0.011007990688085556,
		-0.02481842041015625,
		0.023716093972325325,
		-0.012555807828903198,
		-0.0655192881822586,
		-0.0026646561454981565,
		-0.017674606293439865,
		0.03186286613345146,
		0.10379485785961151,
		0.04671001806855202,
		0.02819555252790451,
		0.011580388061702251,
		0.0331667885184288,
		-0.05211034044623375,
		-0.035585496574640274,
		0.011245423927903175,
		-0.05303509533405304,
		0.025563647970557213,
		0.02535444311797619,
		-0.05906669422984123,
		-0.12332747131586075,
		-0.08656103909015656,
		-0.0911928191781044,
		-0.17991159856319427,
		-0.07758605480194092,
		0.07476351410150528,
		0.01754186674952507,
		-0.031585998833179474,
		-0.051594581454992294,
		-0.02591359242796898,
		-0.008726694621145725,
		-0.03618233650922775,
		-0.030276888981461525,
		-0.1139468401670456,
		-0.01172666996717453,
		-0.08370315283536911,
		-0.0311906598508358,
		-0.04241431877017021,
		-0.07310505956411362,
		-0.06715083867311478,
		0.03790624812245369,
		0.12213215231895447,
		0.008196488954126835,
		-0.0443904809653759,
		-0.05015956237912178,
		0.010735088028013706,
		0.06292632222175598,
		0.14376553893089294,
		0.16511738300323486,
		0.08830732852220535,
		0.0639762431383133,
		-0.09428340941667557,
		-0.06287869065999985,
		-0.021403111517429352,
		0.007049203384667635,
		0.08977935463190079,
		0.08149208873510361,
		0.04811086505651474,
		-0.1330881416797638,
		-0.08711712062358856,
		-0.03995000571012497,
		-0.008736883290112019,
		-0.041577208787202835,
		-0.1818152368068695,
		-0.045566074550151825,
		-0.08406701683998108,
		-0.05483683571219444,
		0.07312972843647003,
		0.07671606540679932,
		0.0517970435321331,
		0.052682820707559586,
		0.03595297783613205,
		0.13349585235118866,
		-0.03611309826374054,
		0.05210605263710022,
		0.07472424954175949,
		0.010030701756477356,
		-0.05215514078736305,
		-0.14740204811096191,
		-0.14894619584083557,
		-0.040005285292863846,
		-0.0012949644587934017,
		0.09505925327539444,
		0.07094874978065491,
		-0.005648518912494183,
		0.10942814499139786,
		-0.03168586269021034,
		-0.024178212508559227,
		0.011388730257749557,
		-0.01843896321952343,
		0.05967991054058075,
		0.07791391760110855,
		0.06340441852807999,
		-0.05538414418697357,
		0.07270541042089462,
		0.11983395367860794,
		0.06639888137578964,
		0.07754988968372345,
		0.0177678931504488,
		-0.10547375679016113,
		-0.0217135027050972,
		0.06019354984164238,
		0.10009243339300156,
		0.002716349670663476,
		-0.03113352321088314,
		-0.013761110603809357,
		0.018804753199219704,
		-0.1387629210948944,
		-0.02405031956732273,
		-0.02426324412226677,
		-0.07592074573040009,
		-0.02215820737183094,
		-0.052108295261859894,
		-0.1553567498922348,
		-0.03984396904706955,
		-0.02095024846494198,
		-0.04384922236204147,
		-0.02122150920331478,
		-0.11299708485603333,
		-0.08377061784267426,
		-0.03017977811396122,
		0.12540380656719208,
		0.06266362965106964,
		0.007076002191752195,
		-0.02086222544312477,
		-0.039351481944322586,
		0.06891049444675446,
		0.12174710631370544,
		0.04250834137201309,
		0.027536476030945778,
		0.06660997867584229,
		-0.0018138986779376864,
		-0.0068154181353747845,
		0.0436360165476799,
		0.029615826904773712,
		-0.036319755017757416,
		-0.0067426711320877075,
		-0.030461790040135384,
		-0.08174309134483337,
		-0.0439411923289299,
		-0.015630321577191353,
		-0.05801098793745041,
		0.007588943932205439,
		0.08594900369644165,
		0.12058809399604797,
		0.037465691566467285,
		0.07801897823810577,
		0.09488406777381897,
		0.060433950275182724,
		-0.09010083973407745,
		-0.08551657944917679,
		-0.10580515116453171,
		-0.04365329444408417,
		-0.1682005077600479,
		-0.20109544694423676,
		-0.08886750042438507,
		0.012613832019269466,
		-0.07397627830505371,
		-0.012084467336535454,
		0.05939127877354622,
		-0.017015328630805016,
		-0.08693962544202805,
		-0.1459392011165619,
		-0.12889361381530762,
		-0.12225646525621414,
		-0.030035454779863358,
		-0.004166293423622847,
		-0.05098816752433777,
		-0.19494327902793884,
		0.0042535290122032166,
		-0.030894102528691292,
		-0.0705266073346138,
		-0.040139004588127136,
		-0.016358722001314163,
		-0.022435031831264496,
		-0.04832622408866882,
		-0.023088356480002403,
		0.01272301934659481,
		-0.014711453579366207,
		0.02454490028321743,
		0.059952281415462494,
		-0.08408912271261215,
		0.01972777396440506,
		0.1358351707458496,
		0.11912503093481064,
		0.10767289996147156,
		0.04379226267337799,
		0.10324512422084808,
		0.06064676120877266,
		0.09897290170192719,
		0.13216464221477509,
		0.11538327485322952,
		0.1474585086107254,
		-0.03539155423641205,
		0.0069882855750620365,
		-0.02184930257499218,
		-0.008935205638408661,
		0.053241852670907974,
		-0.013223587535321712,
		-0.09918884932994843,
		-0.031782977283000946,
		-0.02417219802737236,
		-0.008837963454425335,
		-0.03472944721579552,
		-0.011743186973035336,
		0.03934897482395172,
		-0.035073522478342056,
		-0.06997916102409363,
		0.010227569378912449,
		-0.050526730716228485,
		-0.004511272069066763,
		0.05910414829850197,
		0.0074861361645162106,
		-0.06578327715396881,
		-0.04636821523308754,
		-0.0383291020989418,
		-0.1306348592042923,
		0.07190413773059845,
		0.042254481464624405,
		-0.039144571870565414,
		-0.05394044518470764,
		0.01835639774799347,
		0.06705911457538605,
		0.03937627375125885,
		0.07932727038860321,
		-0.021876022219657898,
		0.06426110863685608,
		-0.022304851561784744,
		0.03237348049879074,
		-0.03543618321418762,
		0.05052762106060982,
		0.016499079763889313,
		0.019150611013174057,
		0.007165191229432821,
		-0.000568369694519788,
		0.0033144105691462755,
		-0.0034851108212023973,
		-0.06213202327489853,
		-0.02800406701862812,
		0.02156655117869377,
		-0.035984352231025696,
		-0.11204324662685394,
		-0.2007531374692917,
		-0.20686298608779907,
		-0.17807546257972717,
		-0.07050102204084396,
		-0.032828010618686676,
		-0.02462233044207096,
		-0.03581090644001961,
		-0.029364293441176414,
		-0.033055104315280914,
		0.016836080700159073,
		0.016176514327526093,
		-0.028934448957443237,
		-0.036619216203689575,
		0.03537162020802498,
		0.05137791857123375,
		0.09617863595485687,
		0.11823881417512894,
		0.04352913424372673,
		0.1467219740152359,
		0.13719581067562103,
		0.09596952795982361,
		0.02796628512442112,
		-0.057065900415182114,
		-0.14846478402614594,
		-0.06852483749389648,
		-0.07769197970628738,
		-0.07834336161613464,
		-0.07585635781288147,
		0.010978958569467068,
		-0.0031851208768785,
		-0.05956095829606056,
		-0.04871775954961777,
		0.05659138038754463,
		0.09094928950071335,
		0.02205559052526951,
		-0.007972090505063534,
		-0.03446534276008606,
		0.01768074929714203,
		0.01088941190391779,
		0.056815195828676224,
		-0.00481067830696702,
		-0.016844378784298897,
		-0.03036673367023468,
		-0.016206756234169006,
		-0.008653988130390644,
		-0.006115703843533993,
		-0.017803186550736427,
		-0.004442839417606592,
		0.03849175572395325,
		0.02568529173731804,
		0.052981290966272354,
		0.11182000488042831,
		0.08914770185947418,
		0.11295776069164276,
		0.09806792438030243,
		0.022285887971520424,
		0.040650900453329086,
		0.03784329071640968,
		0.06487021595239639,
		0.042402200400829315,
		0.03226941451430321,
		0.02979457564651966,
		0.08080767840147018,
		0.05497746542096138,
		0.03785785287618637,
		0.061529383063316345,
		0.03673810139298439,
		0.01045016385614872,
		-0.03725868836045265,
		-0.06185394152998924,
		-0.052807748317718506,
		-0.015080386772751808,
		0.08775979280471802,
		0.06776972860097885,
		0.14505214989185333,
		0.08344528824090958,
		0.040703486651182175,
		0.021046722307801247,
		-0.06726253777742386,
		-0.029186423867940903,
		0.0021463173907250166,
		0.0027165196370333433,
		-0.0035494426265358925,
		-0.013401246629655361,
		-0.03402332589030266,
		0.03721148148179054,
		0.06395451724529266,
		0.05992312729358673,
		0.057416703552007675,
		0.18322087824344635,
		0.13709686696529388,
		0.1598944216966629,
		0.06112900376319885,
		0.06521038711071014,
		0.05152745917439461,
		-0.04769463464617729,
		-0.059288423508405685,
		-0.06956253200769424,
		-0.0281146802008152,
		0.0057044802233576775,
		0.01385067030787468,
		-0.009018038399517536,
		0.007155885919928551,
		0.042540259659290314,
		0.010863673873245716,
		0.04984540864825249,
		-0.023746950551867485,
		-0.17591546475887299,
		-0.11763489991426468,
		-0.08394370228052139,
		0.014842918142676353,
		0.03176281601190567,
		0.1250402331352234,
		0.12608280777931213,
		0.041112225502729416,
		0.10406818240880966,
		0.09860463440418243,
		0.1547696590423584,
		0.1377253532409668,
		-0.022768884897232056,
		-0.033132825046777725,
		-0.05682845041155815,
		-0.03869093954563141,
		0.006210827734321356,
		0.0013608710141852498,
		-0.017675276845693588,
		0.07149668037891388,
		0.0546342097222805,
		0.018204843625426292,
		0.04767376556992531,
		-0.06000036001205444,
		-0.09980347752571106,
		-0.06867232918739319,
		-0.018892575055360794,
		-0.04615606740117073,
		0.00670670298859477,
		-0.019362201914191246,
		0.013162687420845032,
		0.08055010437965393,
		0.012029520235955715,
		0.03806273639202118,
		0.06823142617940903,
		0.06700385361909866,
		-0.07398159056901932,
		-0.07002634555101395,
		-0.005457581020891666,
		0.03753439337015152,
		0.008748545311391354,
		0.021404698491096497,
		0.030317766591906548,
		-0.038706060498952866,
		-0.005730214063078165,
		-0.05241040885448456,
		-0.11088025569915771,
		-0.07558645308017731,
		-0.09942977130413055,
		-0.0460779145359993,
		-0.0020196293480694294,
		-0.06810152530670166,
		0.027816450223326683,
		-0.04229402914643288,
		-0.004629551433026791,
		0.009208128787577152,
		-0.022520726546645164,
		-0.02037939243018627,
		0.04552305489778519,
		0.06518153846263885,
		-0.07334447652101517,
		0.007855452597141266,
		0.014348777942359447,
		-0.06550940871238708,
		-0.016408534720540047,
		-0.01518491841852665,
		0.002846991876140237,
		-0.004632431548088789,
		0.014575513079762459,
		0.03388402611017227,
		0.07552213966846466,
		0.08236730843782425,
		-0.221034437417984,
		-0.3006116449832916,
		-0.1495845466852188,
		-0.20222997665405273,
		-0.0646548941731453,
		-0.06251529604196548,
		-0.07310614734888077,
		-0.053239550441503525,
		0.006006802897900343,
		0.07016538828611374,
		0.059079859405756,
		0.01269568782299757,
		0.020606806501746178,
		-0.0699613019824028,
		-0.04546278715133667,
		0.038482967764139175,
		-0.004431029781699181,
		-0.0059905643574893475,
		0.02601202391088009,
		0.009764513000845909,
		-0.026705002412199974,
		-0.0044085076078772545,
		0.007859848439693451,
		0.0533154271543026,
		-0.1820218861103058,
		-0.1411556601524353,
		-0.0723915547132492,
		-0.03682667389512062,
		-0.02115779183804989,
		0.034735895693302155,
		0.09192416071891785,
		0.037130821496248245,
		0.04075937718153,
		0.047366101294755936,
		0.13306793570518494,
		0.10406264662742615,
		0.025189610198140144,
		0.029962867498397827,
		0.0321696437895298,
		0.03011205792427063,
		-0.027005821466445923,
		-0.006432964466512203,
		-0.06556373089551926,
		-0.13174821436405182,
		-0.06601428240537643,
		-0.05847547575831413,
		-0.030583318322896957,
		0.012220305390655994,
		-0.056279506534338,
		-0.15773336589336395,
		-0.09371687471866608,
		-0.1245337724685669,
		-0.15983179211616516,
		-0.13686823844909668,
		-0.07329102605581284,
		-0.04586906358599663,
		-0.012300209142267704,
		0.013474716804921627,
		0.06087952107191086,
		0.0433221198618412,
		0.003071799874305725,
		-0.07161261141300201,
		-0.10919078439474106,
		-0.06824901700019836,
		-0.06911549717187881,
		-0.018173187971115112,
		0.01122521422803402,
		0.013838921673595905,
		0.032289713621139526,
		0.08621317148208618,
		0.06944651156663895,
		0.03427126258611679,
		-0.020545080304145813,
		-0.013894177973270416,
		0.027677955105900764,
		0.05270684137940407,
		0.10004757344722748,
		0.02550210990011692,
		-0.008449911139905453,
		0.07880645990371704,
		0.05797439068555832,
		0.04529713839292526,
		0.07850056886672974,
		0.040873780846595764,
		0.03297419473528862,
		0.09961971640586853,
		0.09972044825553894,
		-0.014861502684652805,
		0.06177232041954994,
		0.05111338198184967,
		0.004293384961783886,
		0.07236479967832565,
		0.024384481832385063,
		0.004376322031021118,
		0.028762683272361755,
		0.020039720460772514,
		-0.041591282933950424,
		0.027965720742940903,
		0.06224653124809265,
		0.001059353700838983,
		0.05247080326080322,
		0.025052951648831367,
		0.05406874418258667,
		0.06991389393806458,
		-0.00805728416889906,
		-0.006704007741063833,
		0.04794294387102127,
		0.06464184075593948,
		-0.019091757014393806,
		-0.033318500965833664,
		0.015079970471560955,
		0.03743613511323929,
		0.10033746808767319,
		0.034483928233385086,
		0.05231355503201485,
		0.03137652203440666,
		0.08756455034017563,
		0.0010964928660541773,
		0.007993098348379135,
		0.05901085585355759,
		-0.011850934475660324,
		0.0053659784607589245,
		-0.009854982607066631,
		0.02977665141224861,
		-0.008498474024236202,
		-0.05212165415287018,
		-0.009955436922609806,
		-0.06737305968999863,
		-0.005799229256808758,
		-0.048491861671209335,
		-0.06483824551105499,
		-0.08521490544080734,
		0.054635342210531235,
		-0.01641278713941574,
		-0.03995908051729202,
		-0.06497357785701752,
		-0.06091504544019699,
		-0.04400146007537842,
		-0.052213601768016815,
		-0.022565139457583427,
		-0.07919461280107498,
		-0.06933490931987762,
		-0.0044264416210353374,
		-0.009955914691090584,
		0.018032990396022797,
		-0.01595592126250267,
		0.10638602077960968,
		0.09863439947366714,
		0.11257605254650116,
		0.09485701471567154,
		0.11694172769784927,
		0.13338248431682587,
		0.10087165236473083,
		0.10477519035339355,
		0.049973126500844955,
		0.05003998056054115,
		0.05534050986170769,
		0.00454125739634037,
		-0.06960359215736389,
		0.004207673016935587,
		-0.020042911171913147,
		0.035368770360946655,
		0.01793171651661396,
		-0.002816996304318309,
		0.045940857380628586,
		0.1321083903312683,
		-0.01440164539963007,
		-0.03501800075173378,
		0.06273860484361649,
		0.067726269364357,
		0.042947035282850266,
		0.09581473469734192,
		0.01850147545337677,
		0.03583178669214249,
		0.03409093618392944,
		0.07996092736721039,
		0.047122713178396225,
		0.0055743856355547905,
		-0.025662770494818687,
		0.017695698887109756,
		0.04863230884075165,
		-0.025208590552210808,
		-0.04771729186177254,
		-0.12435097247362137,
		-0.0962124764919281,
		-0.10534586012363434,
		-0.054508406668901443,
		-0.034302543848752975,
		0.022317519411444664,
		0.02810048498213291,
		-0.0014252630062401295,
		-0.03415002301335335,
		-0.0450986884534359,
		-0.007969029247760773,
		0.030745333060622215,
		-0.008567404933273792,
		-0.023858090862631798,
		-0.04752472788095474,
		0.01735413819551468,
		-0.09627815335988998,
		-0.05649440363049507,
		-0.0883016362786293,
		-0.014225203543901443,
		-0.021039646118879318,
		0.01124514453113079,
		0.08204604685306549,
		-0.0002098384138662368,
		0.05932500213384628,
		-0.03808526322245598,
		0.09341086447238922,
		-0.039121419191360474,
		0.011012191884219646,
		0.008518536575138569,
		0.1053331196308136,
		0.021006988361477852,
		-0.05053266882896423,
		0.008570319972932339,
		-0.009977541863918304,
		-0.0658600777387619,
		0.021602928638458252,
		0.07013840973377228,
		0.02382073365151882,
		0.08103032410144806,
		0.06960127502679825,
		0.10124491155147552,
		0.034909382462501526,
		0.07544945180416107,
		0.06511451303958893,
		-0.053033456206321716,
		-0.06637176871299744,
		-0.020006852224469185,
		-0.04665285348892212,
		0.027515484020113945,
		-0.028546933084726334,
		-0.01944703795015812,
		-0.026127539575099945,
		0.0074243429116904736,
		0.01124755572527647,
		0.029669733718037605,
		-0.009405955672264099,
		-0.007189383264631033,
		-0.02652028203010559,
		-0.13159751892089844,
		-0.054129235446453094,
		-0.13370607793331146,
		-0.06921030580997467,
		-0.058453310281038284,
		-0.01966838352382183,
		-0.0503702387213707,
		-0.03526000678539276,
		0.03115774318575859,
		0.06907366216182709,
		0.034066032618284225,
		-0.004257308319211006,
		-0.04612618684768677,
		0.035193946212530136,
		0.01382577046751976,
		-0.05109371617436409,
		-0.04473569616675377,
		0.02397104538977146,
		0.023912811651825905,
		-0.0003930158563889563,
		0.019381284713745117,
		-0.10889331251382828,
		0.026816975325345993,
		0.10934729874134064,
		0.09457646310329437,
		0.06191636249423027,
		0.057546645402908325,
		0.10271979868412018,
		0.03553268685936928,
		0.07721031457185745,
		0.06276800483465195,
		0.058890219777822495,
		-0.009796449914574623,
		-0.0014935018261894584,
		-0.11940417438745499,
		-0.1851065307855606,
		-0.05810856819152832,
		-0.05894077196717262,
		-0.018411889672279358,
		0.049970075488090515,
		0.06645810604095459,
		0.043704111129045486,
		0.06897077709436417,
		0.022746890783309937,
		0.026647677645087242,
		0.14205145835876465,
		0.007796398364007473,
		0.07111674547195435,
		0.03532687947154045,
		0.06748388707637787,
		0.10846450179815292,
		0.08571659028530121,
		0.07578056305646896,
		0.07249361276626587,
		0.10724564641714096,
		0.043745387345552444,
		0.084076888859272,
		0.08361516892910004,
		-0.058915361762046814,
		-0.07688093930482864,
		-0.04125392809510231,
		-0.020093046128749847,
		-0.03871739283204079,
		-0.0632859393954277,
		-0.07390289008617401,
		-0.006824372801929712,
		-0.005173191428184509,
		-0.018788017332553864,
		0.04828615114092827,
		0.0560341440141201,
		-0.012464369647204876,
		-0.020970875397324562,
		0.0201888345181942,
		-0.02847030945122242,
		-0.0071882568299770355,
		0.011866210028529167,
		0.03816423937678337,
		0.019078828394412994,
		0.020309746265411377,
		-0.03746478632092476,
		-0.021180344745516777,
		0.005803434178233147,
		-0.01711338572204113,
		-0.07321307808160782,
		-0.15206335484981537,
		-0.142204150557518,
		-0.10047870129346848,
		-0.0157114639878273,
		-0.06442373991012573,
		-0.04321036860346794,
		-0.014847207814455032,
		0.038119345903396606,
		0.02850564755499363,
		0.07598531991243362,
		-0.04193023219704628,
		-0.061809785664081573,
		-0.065120629966259,
		-0.10203874856233597,
		-0.15786859393119812,
		-0.1009582057595253,
		-0.0775359645485878,
		-0.11486726999282837,
		-0.06490645557641983,
		-0.03611072525382042,
		-0.10316859185695648,
		0.053525008261203766,
		-0.01638246700167656,
		-0.01790357194840908,
		0.03828313201665878,
		-0.06262356042861938,
		0.06184358522295952,
		0.015593276359140873,
		0.04056224226951599,
		-0.004935361444950104,
		0.06827440857887268,
		0.029678039252758026,
		0.0629793182015419,
		0.07768289744853973,
		-0.0031352629885077477,
		0.01855284534394741,
		0.015624784864485264,
		0.02611364796757698,
		0.004764626268297434,
		-0.04233117401599884,
		0.023125624284148216,
		-0.04238464683294296,
		-0.021306833252310753,
		-0.0409548319876194,
		-0.04346803203225136,
		-0.06424416601657867,
		0.06450696289539337,
		0.04905445873737335,
		0.10856396704912186,
		0.11490461230278015,
		0.04637930169701576,
		0.0235308650881052,
		0.06378080695867538,
		-0.010097777470946312,
		-0.026515211910009384,
		-0.03248067572712898,
		-0.009651047177612782,
		-0.020134998485445976,
		-0.018628036603331566,
		0.17665956914424896,
		0.012234967201948166,
		0.044888075441122055,
		-0.10022174566984177,
		-0.03713788837194443,
		-0.019372297450900078,
		-0.04221727326512337,
		-0.012361506931483746,
		0.013124130666255951,
		0.09635404497385025,
		-0.17887306213378906,
		-0.024971580132842064,
		-0.027447940781712532,
		0.0009391257190145552,
		-0.030056040734052658,
		-0.024067722260951996,
		0.04578108713030815,
		-0.03341895714402199,
		-0.04096614941954613,
		0.01677459292113781,
		-0.0668412521481514,
		0.01148713193833828,
		-0.010505667887628078,
		-0.07016307860612869,
		-0.026091938838362694,
		-0.0022030009422451258,
		-0.05297468230128288,
		-0.004411405883729458,
		-0.06726165860891342,
		-0.0667138546705246,
		-0.0407845713198185,
		0.017543911933898926,
		-0.04576259106397629,
		0.09250906109809875,
		-0.010323261842131615,
		-0.06496559083461761,
		-0.020773133262991905,
		0.042078278958797455,
		-0.022127652540802956,
		0.03741799667477608,
		-0.02818233333528042,
		0.0063042244873940945,
		0.015022983774542809,
		-0.005670398473739624,
		-0.04737113416194916,
		0.08300377428531647,
		0.06571245938539505,
		0.023792186751961708,
		0.05635300278663635,
		-0.061617787927389145,
		-0.011806922033429146,
		0.005781223531812429,
		0.02608477510511875,
		0.01668475940823555,
		-0.005041582975536585,
		-0.014540850184857845,
		0.18378685414791107,
		0.041675325483083725,
		0.15308940410614014,
		0.011725641787052155,
		0.04433011636137962,
		0.019056551158428192,
		-0.04834575951099396,
		0.013625388033688068,
		0.0018719818908721209,
		-0.01787877082824707,
		-0.07527994364500046,
		-0.014572324231266975,
		0.044380586594343185,
		0.0317385196685791,
		0.018199171870946884,
		-0.047282908111810684,
		-0.04771241545677185,
		-0.06966038793325424,
		-0.06731954962015152,
		-0.09009040892124176,
		-0.07601490616798401,
		-0.10786279290914536,
		-0.08840525150299072,
		-0.04832104593515396,
		-0.08028091490268707,
		-0.0368855744600296,
		-0.06130027398467064,
		-0.08708154410123825,
		-0.00994329433888197,
		-0.06579457968473434,
		-0.0791330486536026,
		-0.03269413113594055,
		-0.10877786576747894,
		-0.09859804809093475,
		-0.06304819881916046,
		-0.07088214159011841,
		-0.031340956687927246,
		0.007179119624197483,
		0.027448639273643494,
		-0.018121179193258286,
		-0.06952841579914093,
		-0.1728101223707199,
		-0.16582627594470978,
		-0.14159001410007477,
		-0.1074591875076294,
		-0.049141183495521545,
		-0.036228008568286896,
		-0.08826997876167297,
		-0.07757635414600372,
		-1.8097442080033943e-05,
		-0.014098836109042168,
		0.02465357817709446,
		0.021379992365837097,
		-0.07657065987586975,
		-0.05913534015417099,
		-0.002637128811329603,
		0.019264578819274902,
		0.017684245482087135,
		0.03428985923528671,
		0.06435977667570114,
		-0.05449076369404793,
		-0.014042608439922333,
		-0.004825696349143982,
		-0.001792465103790164,
		-0.04791022837162018,
		-0.08108288794755936,
		-0.028374042361974716,
		-0.07509002834558487,
		-0.08364289253950119,
		-0.06289733946323395,
		-0.09166648238897324,
		-0.030761905014514923,
		-0.03743334859609604,
		-0.06984652578830719,
		-0.08058039098978043,
		0.0807747170329094,
		0.12391675263643265,
		0.18954060971736908,
		0.06484880298376083,
		0.0635463073849678,
		0.06158870458602905,
		-0.008226238191127777,
		0.06366746127605438,
		0.07952729612588882,
		0.0014525660080835223,
		0.0281980037689209,
		-0.021038880571722984,
		0.1242445632815361,
		0.10611268877983093,
		0.0942482054233551,
		0.137154221534729,
		0.16507868468761444,
		0.07156328111886978,
		0.0917782410979271,
		0.07600513100624084,
		0.027478953823447227,
		0.05044010654091835,
		0.010434785857796669,
		0.04139023646712303,
		0.11195787042379379,
		0.03264140337705612,
		0.10102929919958115,
		-0.0832173079252243,
		-0.07120411098003387,
		0.09006820619106293,
		-0.16134043037891388,
		0.012965482659637928,
		0.08976051211357117,
		0.052113525569438934,
		-0.0024342346005141735,
		-0.23418965935707092,
		0.08259379118680954,
		0.07240394502878189,
		0.13842710852622986,
		0.06801310926675797,
		0.05032016709446907,
		0.036995045840740204,
		-0.01342070009559393,
		-0.010983617044985294,
		-0.002662369981408119,
		0.031934838742017746,
		-0.0645001009106636,
		-0.060241829603910446,
		0.13343530893325806,
		0.07368777692317963,
		0.15681026875972748,
		0.1562528908252716,
		0.07357251644134521,
		0.1018199697136879,
		0.09771029651165009,
		0.07247131317853928,
		0.09403291344642639,
		0.05272185802459717,
		0.025777384638786316,
		-0.0018386030569672585,
		0.024070391431450844,
		-0.035780154168605804,
		-0.07344328612089157,
		-0.03530439734458923,
		-0.026949578896164894,
		-0.04568769782781601,
		-0.023620888590812683,
		-0.03301491588354111,
		0.02860517054796219,
		0.01936880499124527,
		-0.014120982959866524,
		0.034404776990413666,
		0.06805439293384552,
		0.07717510312795639,
		0.09939734637737274,
		0.10833697766065598,
		0.010056482627987862,
		0.008336786180734634,
		0.040581539273262024,
		-0.010440632700920105,
		-0.0744313970208168,
		0.007718559354543686,
		0.01074941735714674,
		-0.1152942106127739,
		-0.05058944597840309,
		0.06892982125282288,
		0.054707493633031845,
		-0.017480997368693352,
		0.04771506041288376,
		0.019136648625135422,
		-0.026396384462714195,
		-0.152409628033638,
		0.009622283279895782,
		0.03283156827092171,
		0.04904739558696747,
		-0.06667216867208481,
		0.11844822019338608,
		0.10434401780366898,
		0.1293945014476776,
		0.1348068118095398,
		-0.00965181365609169,
		-0.0688275620341301,
		0.007793265860527754,
		-0.0326995849609375,
		-0.14921438694000244,
		-0.10692712664604187,
		-0.024134362116456032,
		-0.005129218567162752,
		0.012331709265708923,
		0.02342703752219677,
		0.013717020861804485,
		0.00789016392081976,
		0.032105669379234314,
		0.01857604831457138,
		-0.024096045643091202,
		0.019194109365344048,
		-0.031912025064229965,
		0.004875028971582651,
		-0.06292550265789032,
		-0.02152233198285103,
		0.09406127780675888,
		-0.05931968614459038,
		0.025929804891347885,
		0.010601392947137356,
		0.005744763650000095,
		-0.05759737268090248,
		-0.039267390966415405,
		-0.0686475858092308,
		-0.09602684527635574,
		0.020693307742476463,
		0.05150860175490379,
		0.08255361765623093,
		0.04667067527770996,
		-0.0021646602544933558,
		0.007889670319855213,
		0.06466367095708847,
		-0.00021475915855262429,
		-0.009136436507105827,
		0.04526634141802788,
		-0.03599560633301735,
		0.02206769771873951,
		0.08010757714509964,
		0.05818037688732147,
		0.008137503638863564,
		-0.12709693610668182,
		-0.10857044160366058,
		-0.08877310901880264,
		-0.04518472030758858,
		-0.09817056357860565,
		-0.035444408655166626,
		0.006886068731546402,
		-0.08940532803535461,
		-0.039722148329019547,
		0.08186041563749313,
		-0.026780130341649055,
		-0.1819111853837967,
		-0.09211049973964691,
		-0.08269938826560974,
		-0.0541638620197773,
		0.010661031119525433,
		-0.015348902903497219,
		-0.05496303737163544,
		-0.04885825887322426,
		-0.04419935494661331,
		-0.09695921838283539,
		0.022262750193476677,
		0.053865693509578705,
		0.0487297959625721,
		-0.024188246577978134,
		0.028014499694108963,
		-0.0025274078361690044,
		0.005809735506772995,
		0.04322434589266777,
		0.10013110935688019,
		0.08371970057487488,
		0.0336369127035141,
		-0.04142434522509575,
		-0.05582934245467186,
		-0.09432975947856903,
		-0.09783966094255447,
		0.09008744359016418,
		0.0416395403444767,
		0.029275348410010338,
		0.03723864629864693,
		-0.022125886753201485,
		-0.049969930201768875,
		-0.10019382834434509,
		-0.084656722843647,
		-0.14787715673446655,
		-0.12252781540155411,
		-0.03192555159330368,
		0.07135029882192612,
		0.0014784226659685373,
		0.021955527365207672,
		0.01809551566839218,
		-0.019134849309921265,
		0.0355820506811142,
		-0.028289470821619034,
		0.04101437330245972,
		0.06332021951675415,
		0.07461398094892502,
		0.044875215739011765,
		0.06998471915721893,
		0.012659107334911823,
		0.09163074195384979,
		-0.0782838687300682,
		-0.06988219916820526,
		-0.10428781807422638,
		-0.0912676677107811,
		-0.13368870317935944,
		-0.056320227682590485,
		0.06591511517763138,
		0.15759903192520142,
		0.12993352115154266,
		0.07493702322244644,
		0.0774870440363884,
		0.040658917278051376,
		0.022596366703510284,
		0.02284914068877697,
		-0.055740367621183395,
		-0.1027333065867424,
		-0.05890991538763046,
		0.11650363355875015,
		0.13435225188732147,
		0.07813739776611328,
		-0.015763381496071815,
		0.012382563203573227,
		0.1033419594168663,
		-0.07008106261491776,
		-0.060106974095106125,
		-0.047903429716825485,
		-0.1106298416852951,
		-0.10947594046592712,
		-0.08400145173072815,
		-0.09178376197814941,
		-0.059160299599170685,
		-0.03458411991596222,
		-0.1060657873749733,
		-0.1369902491569519,
		-0.022023722529411316,
		-0.08522818237543106,
		-0.01878109760582447,
		-0.0643814355134964,
		0.0017582046566531062,
		-0.0006988338427618146,
		-0.045449644327163696,
		0.0185190811753273,
		-0.0003600374038796872,
		-0.06736940890550613,
		0.10041140764951706,
		0.11617876589298248,
		0.027798224240541458,
		0.10826142877340317,
		0.08838390558958054,
		0.07291918992996216,
		0.14565980434417725,
		0.03978870064020157,
		0.03332133591175079,
		0.1308303028345108,
		0.12627190351486206,
		-0.11194004863500595,
		-0.20978303253650665,
		0.011706188321113586,
		0.03891066089272499,
		-0.020035352557897568,
		0.0436989851295948,
		0.03706087917089462,
		-0.002150667831301689,
		-0.002089385176077485,
		-0.059386659413576126,
		0.030985988676548004,
		0.050852712243795395,
		0.047172706574201584,
		-0.043201249092817307,
		-0.01571580581367016,
		0.04510771110653877,
		0.16713958978652954,
		0.16134515404701233,
		0.08203566819429398,
		0.04746037349104881,
		0.03980008140206337,
		-0.024208959192037582,
		-0.058656904846429825,
		-0.044881608337163925,
		-0.10987596958875656,
		-0.07549843937158585,
		-0.029956543818116188,
		-0.0010189468739554286,
		-0.025650665163993835,
		-0.012949272058904171,
		0.029836736619472504,
		-0.026861509308218956,
		-0.07081517577171326,
		-0.05785563960671425,
		0.06288149952888489,
		0.0799095630645752,
		0.042364418506622314,
		0.03783854842185974,
		0.01603710651397705,
		-0.02546270750463009,
		0.07072623074054718,
		0.04524550586938858,
		0.0615924596786499,
		-0.01884455792605877,
		0.03884241357445717,
		0.16827492415905,
		-0.027047298848628998,
		-0.231729194521904,
		-0.12232405692338943,
		0.06811190396547318,
		0.008537848480045795,
		-0.033622097223997116,
		0.03768250718712807,
		0.0789330005645752,
		0.10635575652122498,
		0.18172188103199005,
		0.1505647748708725,
		0.08955315500497818,
		0.0663820207118988,
		0.017569970339536667,
		-0.11298761516809464,
		-0.13562840223312378,
		-0.09887915849685669,
		-0.02991856262087822,
		-0.024037128314375877,
		0.05105316638946533,
		0.028866678476333618,
		-0.07120656967163086,
		-0.11633575707674026,
		-0.04680017754435539,
		-0.06985095888376236,
		0.0026500781532377005,
		-0.07129449397325516,
		0.0026510953903198242,
		-0.03708326816558838,
		-0.00047422954230569303,
		0.06817332655191422,
		0.05462344363331795,
		0.09473156929016113,
		0.0697116032242775,
		0.00526641309261322,
		-0.029991010203957558,
		0.04262396693229675,
		0.0563509538769722,
		-0.00025295361410826445,
		0.012878787703812122,
		0.13029086589813232,
		0.14641153812408447,
		-0.019192546606063843,
		-0.038433197885751724,
		-0.07721185684204102,
		-0.0560847744345665,
		-0.040968917310237885,
		-0.08575958013534546,
		-0.028205128386616707,
		-0.03314435854554176,
		0.09049685299396515,
		0.12460695207118988,
		-0.000494681706186384,
		-0.018798675388097763,
		-0.01389932632446289,
		0.02693093754351139,
		0.054835446178913116,
		-0.01881837658584118,
		-0.037926141172647476,
		-0.02317238599061966,
		-0.2049255669116974,
		-0.06542173027992249,
		-0.05206574127078056,
		0.000865383364725858,
		-0.09750811010599136,
		-0.20238451659679413,
		0.0715855285525322,
		0.05615953356027603,
		-0.0028693906497210264,
		-0.02855905517935753,
		4.536414053291082e-06,
		-0.04783317446708679,
		0.004267044831067324,
		0.02004394121468067,
		0.0224581491202116,
		-0.07174021005630493,
		-0.051915492862463,
		0.006128336302936077,
		0.053143881261348724,
		-0.03145807236433029,
		-0.0019348333589732647,
		0.04773153364658356,
		-0.03019610419869423,
		-0.002313442062586546,
		-0.0061149257235229015,
		-0.10204098373651505,
		-0.07498637586832047,
		0.06623848527669907,
		0.049495380371809006,
		0.045627161860466,
		0.04682137444615364,
		-0.05498156324028969,
		-0.0687810555100441,
		-0.06484789401292801,
		-0.10032980144023895,
		-0.018296057358384132,
		-0.009606001898646355,
		-0.0527954027056694,
		-0.025461377575993538,
		0.008037198334932327,
		0.020499173551797867,
		-0.1334303915500641,
		0.009044785052537918,
		0.007906765677034855,
		-0.06721223145723343,
		-0.026512201875448227,
		0.08788293600082397,
		0.003963991533964872,
		-0.01577533595263958,
		0.041779663413763046,
		0.08173858374357224,
		-0.14053170382976532,
		-0.08530215919017792,
		0.041107989847660065,
		-0.00022824309417046607,
		-0.0425250269472599,
		0.017877230420708656,
		0.0074526965618133545,
		0.013989673927426338,
		-0.04750913009047508,
		0.04082174971699715,
		-0.021792735904455185,
		0.006253093481063843,
		-0.009213898330926895,
		-0.016015874221920967,
		-0.07098549604415894,
		0.09053271263837814,
		0.03684864193201065,
		0.11805956065654755,
		0.08931040018796921,
		0.1014687716960907,
		0.032929688692092896,
		0.07086573541164398,
		0.010772244073450565,
		-0.008511442691087723,
		0.01041681319475174,
		0.02815687470138073,
		-0.022031007334589958,
		-0.06813882291316986,
		-0.02945033088326454,
		-0.09950461983680725,
		-0.12265941500663757,
		-0.036648694425821304,
		-0.11647346615791321,
		-0.067843496799469,
		0.07147359102964401,
		0.011056962423026562,
		-0.0401950441300869,
		-0.0698319599032402,
		0.046923015266656876,
		-0.041794050484895706,
		-0.06898999959230423,
		-0.015803484246134758,
		-0.012637000530958176,
		-0.032473888248205185,
		-0.05730505287647247,
		0.0077242497354745865,
		-0.02840912528336048,
		0.06080338731408119,
		-0.017814133316278458,
		0.03885987773537636,
		0.04030472785234451,
		0.14121343195438385,
		0.11317967623472214,
		0.06334062665700912,
		-0.016628248617053032,
		0.00013756068074144423,
		0.04898986965417862,
		-0.021059956401586533,
		-0.02346571534872055,
		-0.05917178466916084,
		-0.07479073852300644,
		-0.001082944218069315,
		-0.05117441341280937,
		0.029379967600107193,
		0.039665523916482925,
		0.04349089041352272,
		0.08421880006790161,
		0.11298002302646637,
		0.11968620866537094,
		0.13120390474796295,
		0.06485489755868912,
		0.08579403907060623,
		0.12248480319976807,
		0.06327180564403534,
		0.019787147641181946,
		-0.004027544520795345,
		-0.0728694498538971,
		-0.049275435507297516,
		0.004924569744616747,
		0.07309601455926895,
		-0.022131796926259995,
		0.049926191568374634,
		0.041722238063812256,
		0.043184544891119,
		-0.028399407863616943,
		-0.02568781189620495,
		-0.033473994582891464,
		-0.06915353983640671,
		-0.057138025760650635,
		-0.06411951780319214,
		-0.03050720877945423,
		-0.018551956862211227,
		-0.10982470959424973,
		-0.11276543140411377,
		-0.09484801441431046,
		-0.11981035768985748,
		-0.062347348779439926,
		-0.033853139728307724,
		-0.060358382761478424,
		0.008359003812074661,
		-0.025328002870082855,
		0.00797551404684782,
		-0.03474385663866997,
		-0.06280718743801117,
		-0.010358883999288082,
		-0.06882485747337341,
		0.008789846673607826,
		-0.008687322959303856,
		0.004772354383021593,
		-0.00473225861787796,
		0.04012655094265938,
		0.10048974305391312,
		0.10827796161174774,
		0.15899372100830078,
		0.12661467492580414,
		0.02334613725543022,
		0.018929498270154,
		0.006736807990819216,
		0.059303853660821915,
		0.04138508811593056,
		-0.017740648239850998,
		-0.09495709836483002,
		-0.06837963312864304,
		0.1830158531665802,
		0.07418107986450195,
		0.09679737687110901,
		0.06204388663172722,
		-0.007867714390158653,
		-0.014528743922710419,
		0.013602744787931442,
		0.008347298949956894,
		-0.012643753550946712,
		-0.01934192329645157,
		-0.062781922519207,
		-0.07142859697341919,
		0.01015223003923893,
		0.03746573626995087,
		-0.046445250511169434,
		-0.011467822827398777,
		-0.02186080999672413,
		-0.053708262741565704,
		-0.05591433122754097,
		-0.028627455234527588,
		-0.07780718058347702,
		-0.0363803394138813,
		-0.016916567459702492,
		-0.0018539628945291042,
		-0.09434343874454498,
		-0.09237931668758392,
		-0.03762292116880417,
		-0.10291321575641632,
		-0.04877700284123421,
		-0.025428401306271553,
		0.0009943768382072449,
		0.01565914787352085,
		-0.01956552267074585,
		-0.05231338366866112,
		0.00804927758872509,
		5.665614298777655e-05,
		-0.014477826654911041,
		0.07287430763244629,
		0.07675666362047195,
		0.007882971316576004,
		0.021186569705605507,
		-0.023303834721446037,
		0.03171664476394653,
		-0.037243567407131195,
		-0.005630013532936573,
		-0.008736136369407177,
		0.03299069404602051,
		0.013033883646130562,
		-0.11597773432731628,
		-0.055010758340358734,
		-0.0503079816699028,
		-0.07547363638877869,
		-0.03419108688831329,
		0.02502351999282837,
		0.07055780291557312,
		0.07578779011964798,
		0.23936593532562256,
		0.15213048458099365,
		0.14788207411766052,
		0.17565126717090607,
		0.0969095304608345,
		0.07065293937921524,
		0.009200721979141235,
		0.033684711903333664,
		0.028763344511389732,
		-0.019913045689463615,
		0.06533557176589966,
		0.008194689638912678,
		0.07281698286533356,
		0.08040604740381241,
		0.140342116355896,
		0.05663793906569481,
		-0.10055394470691681,
		-0.029105110093951225,
		-0.09376314282417297,
		-0.000500835245475173,
		0.0934840515255928,
		0.10266003012657166,
		0.12506353855133057,
		0.1506342887878418,
		0.09833485633134842,
		0.04742318391799927,
		0.10005965083837509,
		0.0981331467628479,
		0.029907776042819023,
		0.008639655075967312,
		-0.009333412162959576,
		-0.010507377795875072,
		-0.005192735232412815,
		0.03308304399251938,
		-0.08052367717027664,
		-0.049474768340587616,
		-0.04843750223517418,
		0.005224318243563175,
		-0.04686126857995987,
		0.0028704639989882708,
		-0.023521291092038155,
		0.030239388346672058,
		0.008788022212684155,
		-0.08664489537477493,
		-0.027319302782416344,
		0.07615220546722412,
		0.030246568843722343,
		0.03465642035007477,
		0.08696459978818893,
		0.05581795796751976,
		0.000500787515193224,
		0.04525105655193329,
		-0.040492068976163864,
		-0.03929508477449417,
		0.028625283390283585,
		0.04303491860628128,
		-0.02349730208516121,
		-0.04793274402618408,
		0.07748375833034515,
		0.12597155570983887,
		0.04218184947967529,
		0.012127972207963467,
		0.04722879081964493,
		0.05806204304099083,
		-0.05144009366631508,
		-0.05067594349384308,
		-0.021570082753896713,
		-0.08587463200092316,
		-0.02832130342721939,
		-0.00508898077532649,
		0.06981127709150314,
		0.04480016976594925,
		0.026530593633651733,
		0.04860686510801315,
		-0.03022780269384384,
		-0.025105370208621025,
		-0.0018641079077497125,
		0.10144367814064026,
		0.1712084859609604,
		0.09717707335948944,
		0.0656014084815979,
		-0.005146206356585026,
		0.04251665621995926,
		0.13611677289009094,
		0.08215408027172089,
		0.03896459937095642,
		0.04541934281587601,
		-0.00305003859102726,
		0.041068680584430695,
		0.05965667963027954,
		0.05888817831873894,
		-0.052193447947502136,
		-0.06601942330598831,
		-0.13247337937355042,
		-0.023518556728959084,
		-0.01816939190030098,
		0.020195292308926582,
		0.024726204574108124,
		-0.06943689286708832,
		0.08503265678882599,
		0.07518910616636276,
		0.034862518310546875,
		-0.006624887697398663,
		-0.0479428768157959,
		-0.014944440685212612,
		0.002319397870451212,
		0.08628460764884949,
		0.053258996456861496,
		-0.02952464111149311,
		0.056918803602457047,
		0.05201331898570061,
		0.006330011412501335,
		-0.1443638801574707,
		-0.16845263540744781,
		-0.007287680171430111,
		-0.00119584403000772,
		-0.02544131688773632,
		-0.022503281012177467,
		0.0027828647289425135,
		-0.0011861413950100541,
		-0.015819819644093513,
		-0.005636401474475861,
		0.012652588076889515,
		0.040619831532239914,
		-0.11860855668783188,
		-0.07319730520248413,
		-0.13254141807556152,
		-0.10445114970207214,
		-0.08380518853664398,
		-0.05165255442261696,
		-0.07846129685640335,
		-0.11243590712547302,
		-0.12133143097162247,
		-0.046814121305942535,
		-0.0046160779893398285,
		-0.004912206903100014,
		-0.19157244265079498,
		-0.12374712526798248,
		-0.1395956426858902,
		-0.10135697573423386,
		-0.09926919639110565,
		-0.16552536189556122,
		-0.10278943926095963,
		-0.04988962411880493,
		-0.023904399946331978,
		-0.02566172182559967,
		-0.03474598005414009,
		0.06251049041748047,
		-0.12309769541025162,
		-0.10349945724010468,
		-0.17042648792266846,
		-0.1449921429157257,
		-0.06153632327914238,
		-0.02175484038889408,
		0.055829618126153946,
		0.08194467425346375,
		0.029691405594348907,
		0.07116831094026566,
		0.07714123278856277,
		0.06640908122062683,
		-0.12093500047922134,
		-0.12405697256326675,
		-0.0669700875878334,
		0.003170018084347248,
		0.04420118033885956,
		0.09303703904151917,
		0.11115649342536926,
		0.057060323655605316,
		0.09275022894144058,
		0.16411979496479034,
		0.1322382688522339,
		0.158141627907753,
		0.028406798839569092,
		-0.026352649554610252,
		0.014794135466217995,
		-0.0063769021071493626,
		-0.01592378318309784,
		-0.0639214962720871,
		0.021746071055531502,
		-0.06029100716114044,
		0.015053491108119488,
		0.04210558161139488,
		0.06799309700727463,
		-0.03907237574458122,
		0.04360196366906166,
		-0.026743507012724876,
		-0.036309774965047836,
		-0.13412746787071228,
		-0.15094898641109467,
		-0.14705005288124084,
		-0.19739343225955963,
		-0.07702107727527618,
		-0.16263310611248016,
		-0.16453273594379425,
		-0.14929230511188507,
		-0.12104548513889313,
		0.053260285407304764,
		0.05228699371218681,
		-0.034714702516794205,
		-0.014433898031711578,
		-0.021967830136418343,
		-0.01621013507246971,
		-0.028408007696270943,
		0.15135137736797333,
		-0.0186738520860672,
		0.0005365510587580502,
		0.012783677317202091,
		-0.020154030993580818,
		-0.06688733398914337,
		-0.07948664575815201,
		-0.012907469645142555,
		-0.10918720811605453,
		-0.10396427661180496,
		-0.05384768173098564,
		-0.11686055362224579,
		-0.05962003767490387,
		0.027056841179728508,
		-0.022051969543099403,
		-0.036960940808057785,
		0.017886318266391754,
		0.08521179109811783,
		0.0283217653632164,
		0.007976219058036804,
		-0.020000437274575233,
		0.04357999563217163,
		0.05017286539077759,
		-0.003238290548324585,
		-0.14294856786727905,
		-0.1329488456249237,
		0.030095353722572327,
		0.05713072791695595,
		0.061640724539756775,
		-0.00671039242297411,
		0.020146310329437256,
		0.02292083576321602,
		0.02724788710474968,
		0.026528792455792427,
		-0.019793333485722542,
		-0.002339608734473586,
		0.02308288961648941,
		0.05168503522872925,
		-0.01492500863969326,
		0.03673359379172325,
		-0.011241955682635307,
		0.05184217914938927,
		0.029855875298380852,
		-0.019330812618136406,
		-0.0566168874502182,
		0.04158985987305641,
		0.051304131746292114,
		-0.02146986871957779,
		-0.043942395597696304,
		0.10080860555171967,
		0.08313453197479248,
		-0.0066344402730464935,
		0.006644398905336857,
		-0.10774164646863937,
		-0.06858751177787781,
		0.023224325850605965,
		-0.10624175518751144,
		-0.11419535428285599,
		-0.039952099323272705,
		-0.022211065515875816,
		-0.14492584764957428,
		-0.11703631281852722,
		-0.0003630552382674068,
		0.08114544302225113,
		0.045337870717048645,
		0.061245232820510864,
		0.01942640356719494,
		-0.006651949603110552,
		-0.040052369236946106,
		-0.02358223684132099,
		-0.04216275364160538,
		0.034154195338487625,
		-0.009618766605854034,
		0.013887370005249977,
		0.023559799417853355,
		0.029184799641370773,
		-0.056960511952638626,
		0.039646342396736145,
		0.007817280478775501,
		0.0428241528570652,
		0.045582547783851624,
		0.06747078895568848,
		0.05709768459200859,
		0.0008927928865887225,
		0.05395812168717384,
		0.006529549602419138,
		-0.0059693073853850365,
		-0.009387983940541744,
		-0.05967394635081291,
		-0.03620320186018944,
		-0.005395375657826662,
		0.022406691685318947,
		-0.005572036374360323,
		-0.04726692661643028,
		-0.12049183994531631,
		-0.09315624088048935,
		-0.028670253232121468,
		0.03639223799109459,
		0.011938437819480896,
		-0.1388198286294937,
		-0.1598917841911316,
		-0.05006226524710655,
		-0.0856642946600914,
		0.03876489773392677,
		-0.0379297211766243,
		0.012454819865524769,
		-0.0634583905339241,
		-0.035231877118349075,
		-0.00844818539917469,
		-0.04555073007941246,
		0.02390373684465885,
